%YAML:1.0
---
opencv_ml_svm:
   format: 3
   svmType: C_SVC
   kernel:
      type: RBF
      gamma: 5.3830000000000000e+00
   C: 2.6699999999999999e+00
   term_criteria: { epsilon:1.1920928955078125e-07, iterations:1000 }
   var_count: 64
   class_count: 4
   class_labels: !!opencv-matrix
      rows: 4
      cols: 1
      dt: i
      data: [ 1001, 1003, 1005, 1007 ]
   sv_total: 307
   support_vectors:
      - [ 1.53137043e-01, 1.24252342e-01, 8.83772224e-02, 8.75045136e-02,
          1.35053068e-01, 7.26121962e-02, 9.98715460e-02, 1.90413579e-01,
          1.24376677e-01, 3.78381014e-02, 5.52951917e-02, 0.,
          1.20565265e-01, 1.15162760e-01, 1.58352569e-01, 2.42613569e-01,
          2.18742996e-01, 1.34194329e-01, 6.08099699e-02, 7.49265254e-02,
          1.85351148e-02, 2.68400908e-02, 2.98684668e-02, 1.92407906e-01,
          1.35646299e-01, 0., 6.50528595e-02, 3.98705564e-02,
          7.00071873e-03, 4.31887917e-02, 4.29807380e-02, 2.63659239e-01,
          9.79383811e-02, 1.15019456e-01, 1.47403866e-01, 7.74254203e-02,
          1.32849351e-01, 1.17281027e-01, 1.58785790e-01, 2.95834422e-01,
          1.17284372e-01, 1.10892281e-01, 0., 8.46561193e-02,
          5.61106615e-02, 8.75370875e-02, 7.90905729e-02, 2.03186840e-01,
          1.65336847e-01, 1.22545157e-02, 7.43851215e-02, 9.15440321e-02,
          1.32285720e-02, 8.37990791e-02, 6.67081773e-02, 2.00513169e-01,
          2.45375752e-01, 1.55047774e-01, 9.01179761e-02, 1.40734434e-01,
          1.42816782e-01, 6.04400039e-03, 7.19274953e-02, 1.23591952e-01 ]
      - [ 1.87486619e-01, 9.88725126e-02, 5.99705763e-02, 5.60593419e-02,
          9.62685347e-02, 7.77449682e-02, 0., 1.79637551e-01,
          1.64531857e-01, 9.49495509e-02, 7.28416815e-02, 7.43566453e-02,
          9.20945182e-02, 1.41012028e-01, 1.44027680e-01, 2.58961201e-01,
          1.06256768e-01, 8.62361677e-03, 7.86867514e-02, 4.68513146e-02,
          9.22895297e-02, 8.69109556e-02, 6.03681244e-02, 1.75940663e-01,
          9.32421312e-02, 0., 0., 0., 1.04864419e-01, 6.35490641e-02,
          8.63410756e-02, 2.40915239e-01, 1.29557073e-01, 1.21622212e-01,
          1.53356731e-01, 1.33383006e-01, 1.63287371e-01, 1.40000358e-01,
          1.43525943e-01, 3.00743312e-01, 1.88134894e-01, 1.09292783e-01,
          1.10709876e-01, 7.15389177e-02, 1.16104752e-01, 1.02384530e-01,
          2.03946829e-01, 1.52815238e-01, 1.09777018e-01, 8.36075395e-02,
          3.94008644e-02, 5.26449038e-03, 1.36823338e-02, 5.42912297e-02,
          7.87224900e-03, 2.06114665e-01, 1.04004703e-01, 1.52446583e-01,
          1.49811611e-01, 1.37184337e-01, 1.29605815e-01, 0.,
          1.07809760e-01, 1.55413628e-01 ]
      - [ 1.87486619e-01, 9.88725126e-02, 5.99705763e-02, 5.60593456e-02,
          9.62685347e-02, 7.77449682e-02, 0., 1.79637551e-01,
          1.64531857e-01, 9.49495509e-02, 7.28416815e-02, 7.43566453e-02,
          9.20945182e-02, 1.41012028e-01, 1.44027680e-01, 2.58961201e-01,
          1.06256768e-01, 8.62361677e-03, 7.86867514e-02, 4.68513146e-02,
          9.22895297e-02, 8.69109556e-02, 6.03681244e-02, 1.75940663e-01,
          9.32421312e-02, 0., 0., 0., 1.04864419e-01, 6.35490641e-02,
          8.63410756e-02, 2.40915239e-01, 1.29557073e-01, 1.21622220e-01,
          1.53356731e-01, 1.33383006e-01, 1.63287371e-01, 1.40000358e-01,
          1.43525943e-01, 3.00743312e-01, 1.88134894e-01, 1.09292783e-01,
          1.10709876e-01, 7.15389177e-02, 1.16104752e-01, 1.02384530e-01,
          2.03946829e-01, 1.52815238e-01, 1.09777018e-01, 8.36075470e-02,
          3.94008607e-02, 5.26449038e-03, 1.36823338e-02, 5.42912297e-02,
          7.87224900e-03, 2.06114665e-01, 1.04004703e-01, 1.52446583e-01,
          1.49811611e-01, 1.37184337e-01, 1.29605815e-01, 0.,
          1.07809760e-01, 1.55413628e-01 ]
      - [ 1.58750489e-01, 1.33149564e-01, 1.81210160e-01, 1.23414554e-01,
          1.56029895e-01, 1.01169281e-01, 1.11679532e-01, 1.42663419e-01,
          8.53204057e-02, 0., 1.20627619e-01, 1.13685504e-01,
          9.32701528e-02, 1.51274160e-01, 1.49472341e-01, 2.06726253e-01,
          3.03547651e-01, 8.01140070e-02, 9.25384182e-03, 5.12253754e-02,
          7.14620873e-02, 5.85543886e-02, 9.02948603e-02, 1.44119099e-01,
          1.74686089e-01, 8.33907053e-02, 0., 0., 4.97488230e-02,
          8.31264779e-02, 1.17130578e-01, 2.64558434e-01, 9.76053998e-02,
          5.31301051e-02, 0., 6.23420253e-02, 1.39722586e-01,
          1.64229527e-01, 1.93946809e-01, 2.35471666e-01, 5.64626306e-02,
          8.04885253e-02, 0., 7.93081596e-02, 1.11957066e-01,
          7.72465765e-02, 1.40755370e-01, 0., 7.42239282e-02,
          6.35658950e-02, 8.77302289e-02, 9.74234790e-02, 9.81711075e-02,
          8.88926685e-02, 2.16660257e-02, 2.05205947e-01, 2.65250176e-01,
          1.35544211e-01, 9.67356935e-02, 1.30675763e-01, 1.48664415e-01,
          8.15908313e-02, 0., 6.81478810e-03 ]
      - [ 1.94979042e-01, 1.14062794e-01, 8.90135840e-02, 1.10694796e-01,
          9.75963995e-02, 1.22183360e-01, 0., 1.72621831e-01,
          1.20178856e-01, 5.35814986e-02, 1.46139460e-02, 1.00696199e-01,
          1.35639653e-01, 1.27566218e-01, 1.19609669e-01, 2.37997949e-01,
          1.99900731e-01, 1.25904903e-01, 3.87533307e-02, 7.79732615e-02,
          9.92822088e-03, 0., 5.13453558e-02, 1.80962682e-01,
          1.18218981e-01, 5.52373640e-02, 4.53789197e-02, 0.,
          6.62870780e-02, 0., 9.75864232e-02, 2.46294931e-01,
          1.14882410e-01, 1.12322219e-01, 1.31153613e-01, 6.79468885e-02,
          1.93773001e-01, 1.09770983e-01, 1.76545411e-01, 2.82110304e-01,
          1.42424583e-01, 8.32287520e-02, 4.51240167e-02, 1.07169539e-01,
          9.29117277e-02, 1.29592285e-01, 0., 1.69168785e-01,
          1.54803842e-01, 6.50652722e-02, 5.93784899e-02, 8.60819817e-02,
          7.76421651e-02, 6.39151335e-02, 9.01752431e-03, 2.11970761e-01,
          2.33826414e-01, 1.39104635e-01, 1.31564915e-01, 1.48750827e-01,
          1.21495984e-01, 3.79316472e-02, 9.22019482e-02, 1.16318978e-01 ]
      - [ 1.58750489e-01, 1.33149564e-01, 1.81210160e-01, 1.23414554e-01,
          1.56029895e-01, 1.01169281e-01, 1.11679532e-01, 1.42663419e-01,
          8.53204057e-02, 0., 1.20627619e-01, 1.13685504e-01,
          9.32701528e-02, 1.51274160e-01, 1.49472341e-01, 2.06726253e-01,
          3.03547651e-01, 8.01140070e-02, 9.25384182e-03, 5.12253754e-02,
          7.14620873e-02, 5.85543886e-02, 9.02948678e-02, 1.44119099e-01,
          1.74686089e-01, 8.33907053e-02, 0., 0., 4.97488230e-02,
          8.31264779e-02, 1.17130578e-01, 2.64558434e-01, 9.76053998e-02,
          5.31301051e-02, 0., 6.23420253e-02, 1.39722586e-01,
          1.64229527e-01, 1.93946809e-01, 2.35471666e-01, 5.64626306e-02,
          8.04885253e-02, 0., 7.93081596e-02, 1.11957066e-01,
          7.72465765e-02, 1.40755370e-01, 0., 7.42239282e-02,
          6.35658950e-02, 8.77302364e-02, 9.74234790e-02, 9.81711075e-02,
          8.88926685e-02, 2.16660257e-02, 2.05205947e-01, 2.65250176e-01,
          1.35544211e-01, 9.67356935e-02, 1.30675763e-01, 1.48664415e-01,
          8.15908313e-02, 0., 6.81478810e-03 ]
      - [ 1.94979042e-01, 1.14062794e-01, 8.90135840e-02, 1.10694796e-01,
          9.75963995e-02, 1.22183360e-01, 0., 1.72621831e-01,
          1.20178856e-01, 5.35814986e-02, 1.46139460e-02, 1.00696199e-01,
          1.35639653e-01, 1.27566218e-01, 1.19609669e-01, 2.37997949e-01,
          1.99900731e-01, 1.25904903e-01, 3.87533307e-02, 7.79732615e-02,
          9.92822088e-03, 0., 5.13453558e-02, 1.80962682e-01,
          1.18218981e-01, 5.52373640e-02, 4.53789197e-02, 0.,
          6.62870780e-02, 0., 9.75864306e-02, 2.46294931e-01,
          1.14882410e-01, 1.12322219e-01, 1.31153613e-01, 6.79468885e-02,
          1.93773001e-01, 1.09770983e-01, 1.76545411e-01, 2.82110304e-01,
          1.42424583e-01, 8.32287520e-02, 4.51240167e-02, 1.07169539e-01,
          9.29117277e-02, 1.29592285e-01, 0., 1.69168785e-01,
          1.54803842e-01, 6.50652722e-02, 5.93784899e-02, 8.60819817e-02,
          7.76421651e-02, 6.39151335e-02, 9.01752431e-03, 2.11970761e-01,
          2.33826414e-01, 1.39104635e-01, 1.31564915e-01, 1.48750827e-01,
          1.21495984e-01, 3.79316472e-02, 9.22019482e-02, 1.16318978e-01 ]
      - [ 2.98775703e-01, 1.53811857e-01, 1.21380568e-01, 7.04093575e-02,
          7.49277100e-02, 1.05240352e-01, 9.56851318e-02, 1.12402774e-01,
          1.69900805e-01, 1.02452293e-01, 1.20295495e-01, 1.23139441e-01,
          8.96609277e-02, 1.16195932e-01, 1.63215488e-01, 1.68129072e-01,
          2.27152795e-01, 1.17186792e-01, 1.41916186e-01, 5.00706863e-03,
          5.63136302e-03, 0., 2.11905446e-02, 6.94182515e-02,
          6.38867319e-02, 8.05956572e-02, 6.76706657e-02, 8.99762213e-02,
          1.05591834e-01, 1.27676561e-01, 1.64086416e-01, 2.35586196e-01,
          1.30997226e-01, 7.17751160e-02, 7.12061822e-02, 8.66145939e-02,
          3.07062361e-02, 2.67180085e-01, 1.62218615e-01, 2.09683746e-01,
          1.93318099e-01, 2.99504250e-02, 4.99626845e-02, 1.11719809e-01,
          5.87823279e-02, 9.04993340e-02, 1.33351833e-01, 0.,
          1.16646308e-02, 7.60784606e-03, 5.27931266e-02, 0.,
          6.72171935e-02, 4.76006418e-02, 3.05681750e-02, 2.42853582e-01,
          2.28237554e-01, 1.18673459e-01, 1.44708797e-01, 2.05975533e-01,
          6.89698290e-03, 0., 5.79964835e-03, 8.09296500e-03 ]
      - [ 2.67905563e-01, 2.22688183e-01, 1.91789821e-01, 8.63994882e-02,
          5.99174984e-02, 1.33371592e-01, 1.34433106e-01, 1.16822980e-01,
          1.69181019e-01, 7.49405250e-02, 1.00310951e-01, 7.44575933e-02,
          9.57738906e-02, 1.95053950e-01, 1.97181970e-01, 1.29637823e-01,
          1.91513881e-01, 1.75226033e-01, 6.53004693e-03, 5.49109280e-03,
          1.83743723e-02, 6.53004693e-03, 8.99480842e-03, 1.14051692e-01,
          1.35423064e-01, 1.68688118e-01, 3.50711048e-02, 5.49109280e-03,
          1.68935999e-01, 1.73357069e-01, 1.50913030e-01, 2.06260532e-01,
          8.67480859e-02, 4.81739827e-02, 1.03791825e-01, 1.13406070e-01,
          1.24024630e-01, 1.60578668e-01, 1.55149981e-01, 3.08217555e-01,
          1.42305806e-01, 8.21109861e-03, 7.45638832e-03, 5.73409945e-02,
          1.20539278e-01, 8.33978951e-02, 0., 0., 1.06966905e-02,
          1.33845368e-02, 8.29200633e-03, 0., 1.38093680e-02, 0.,
          1.52126104e-02, 9.12463740e-02, 2.20026404e-01, 1.82033122e-01,
          1.32477134e-01, 9.70286801e-02, 1.33165821e-01, 3.67248245e-02,
          9.11563542e-03, 0. ]
      - [ 2.74721622e-01, 2.14966938e-01, 1.07220136e-01, 6.78757802e-02,
          9.22744796e-02, 1.21447586e-01, 1.36431694e-01, 1.49317518e-01,
          1.28737912e-01, 1.25021175e-01, 6.57488871e-03, 1.02780804e-01,
          1.55995116e-01, 1.44817844e-01, 1.67727426e-01, 1.24242671e-01,
          2.89414525e-01, 1.84810609e-01, 3.37101109e-02, 5.52880019e-03,
          1.33090680e-02, 5.04994169e-02, 8.88025239e-02, 9.45693851e-02,
          1.36647373e-01, 1.08491220e-01, 1.01933934e-01, 8.58740509e-02,
          9.33323577e-02, 1.71094954e-01, 9.47864652e-02, 1.76469505e-01,
          8.59956369e-02, 6.40396588e-03, 9.01011303e-02, 7.02060014e-03,
          1.95499644e-01, 1.73791856e-01, 2.07619786e-01, 1.65890470e-01,
          1.65106311e-01, 7.15615228e-02, 6.10901490e-02, 4.44235057e-02,
          1.21136487e-01, 8.87883306e-02, 8.94526392e-02, 0.,
          1.29696252e-02, 1.17864748e-02, 1.12280389e-02, 6.26984686e-02,
          6.68507740e-02, 0., 1.17997989e-01, 1.59519643e-01,
          2.47571245e-01, 1.00729302e-01, 1.43188506e-01, 1.15011908e-01,
          1.56952679e-01, 0., 0., 9.57616325e-03 ]
      - [ 2.64600992e-01, 2.01224402e-01, 9.64864492e-02, 8.89310390e-02,
          1.62205156e-02, 9.03937593e-03, 1.03092842e-01, 1.41417071e-01,
          1.86734632e-01, 8.62968862e-02, 9.25419107e-02, 5.04056290e-02,
          8.93005133e-02, 1.38466060e-01, 1.67762369e-01, 2.65392363e-01,
          1.85869649e-01, 1.00660093e-01, 0., 1.04093730e-01,
          9.94683430e-02, 9.21844095e-02, 7.79056456e-03, 8.45146999e-02,
          1.14792809e-01, 6.27658144e-02, 7.73689076e-02, 1.12304702e-01,
          6.34499714e-02, 1.07715145e-01, 1.20722316e-01, 2.89518535e-01,
          8.02337471e-03, 9.87819061e-02, 9.34676826e-02, 4.72676232e-02,
          9.25398096e-02, 1.49604842e-01, 2.75115997e-01, 2.59259731e-01,
          1.55045867e-01, 1.23179648e-02, 6.67673200e-02, 1.10258013e-01,
          0., 7.96763599e-02, 0., 1.29954860e-01, 1.09435404e-02, 0.,
          5.66621423e-02, 9.40608047e-03, 6.12219572e-02, 6.92690071e-03,
          6.54422119e-02, 1.80095881e-01, 2.09138453e-01, 1.37926459e-01,
          1.36725351e-01, 1.90249726e-01, 1.05003081e-01, 0.,
          3.89528228e-03, 0. ]
      - [ 2.68529803e-01, 2.05952689e-01, 1.18236512e-01, 8.96776840e-02,
          1.25577763e-01, 0., 7.97680095e-02, 1.20933652e-02,
          2.01679289e-01, 1.03119239e-01, 1.12294562e-01, 0.,
          1.54669374e-01, 1.17769003e-01, 1.55127898e-01, 1.96289271e-01,
          1.89449012e-01, 2.09023610e-01, 8.21049064e-02, 0.,
          2.81854067e-02, 0., 7.76195433e-03, 7.25846365e-03,
          1.54700605e-02, 8.63731951e-02, 8.41302872e-02, 9.65855643e-02,
          4.82511893e-02, 1.22906461e-01, 1.61379114e-01, 2.47091174e-01,
          6.42882148e-03, 9.08331200e-02, 8.70769024e-02, 0.,
          1.62879482e-01, 2.25055516e-01, 1.54805362e-01, 2.70655841e-01,
          1.40678868e-01, 6.94620460e-02, 7.71602392e-02, 1.13200188e-01,
          0., 5.96358106e-02, 1.31013736e-01, 8.80429372e-02, 0.,
          3.82260000e-03, 0., 1.45169273e-02, 1.33164609e-02,
          6.79765129e-03, 2.34480072e-02, 2.23655045e-01, 2.73627490e-01,
          1.75696880e-01, 9.11157206e-02, 1.34300098e-01, 1.25585780e-01,
          0., 0., 0. ]
      - [ 2.98775703e-01, 1.53811857e-01, 1.21380568e-01, 7.04093575e-02,
          7.49277100e-02, 1.05240352e-01, 9.56851318e-02, 1.12402774e-01,
          1.69900805e-01, 1.02452293e-01, 1.20295495e-01, 1.23139441e-01,
          8.96609351e-02, 1.16195932e-01, 1.63215488e-01, 1.68129072e-01,
          2.27152795e-01, 1.17186792e-01, 1.41916186e-01, 5.00706863e-03,
          5.63136302e-03, 0., 2.11905446e-02, 6.94182515e-02,
          6.38867319e-02, 8.05956572e-02, 6.76706657e-02, 8.99762213e-02,
          1.05591834e-01, 1.27676561e-01, 1.64086416e-01, 2.35586196e-01,
          1.30997226e-01, 7.17751160e-02, 7.12061822e-02, 8.66145939e-02,
          3.07062361e-02, 2.67180085e-01, 1.62218601e-01, 2.09683746e-01,
          1.93318099e-01, 2.99504250e-02, 4.99626845e-02, 1.11719809e-01,
          5.87823279e-02, 9.04993340e-02, 1.33351833e-01, 0.,
          1.16646308e-02, 7.60784606e-03, 5.27931266e-02, 0.,
          6.72171935e-02, 4.76006418e-02, 3.05681750e-02, 2.42853582e-01,
          2.28237554e-01, 1.18673459e-01, 1.44708797e-01, 2.05975533e-01,
          6.89698290e-03, 0., 5.79964835e-03, 8.09296500e-03 ]
      - [ 2.58981764e-01, 1.86577439e-01, 1.50453046e-01, 1.66125894e-01,
          1.75741035e-02, 5.61235063e-02, 0., 8.92940070e-03,
          1.81071341e-01, 8.78507122e-02, 9.39579457e-02, 6.82581142e-02,
          1.81594893e-01, 1.64964557e-01, 1.81513608e-01, 1.33636430e-01,
          2.20530003e-01, 1.41655132e-01, 1.03757478e-01, 7.75465816e-02,
          4.12752852e-02, 6.56985352e-03, 8.26221481e-02, 0.,
          8.93215388e-02, 9.81073678e-02, 9.38348994e-02, 8.02389011e-02,
          1.05795421e-01, 1.02459989e-01, 1.55829385e-01, 2.40577504e-01,
          0., 1.05745099e-01, 6.26083612e-02, 8.38035941e-02,
          1.51185766e-01, 1.76940203e-01, 1.38472885e-01, 3.26888889e-01,
          1.39213473e-01, 2.94939447e-02, 0., 1.24191068e-01,
          5.48065007e-02, 8.75838846e-02, 0., 1.38238072e-01,
          4.39352589e-03, 0., 0., 7.81291630e-03, 1.29678156e-02, 0.,
          8.72657225e-02, 1.69555709e-01, 2.59314507e-01, 1.16800345e-01,
          1.65282369e-01, 1.18147105e-01, 1.38119563e-01, 5.34815490e-02,
          9.17120371e-03, 5.52456640e-03 ]
      - [ 2.11834997e-01, 2.27646410e-01, 1.67670846e-01, 9.47507322e-02,
          1.34278521e-01, 1.50694504e-01, 1.05115063e-01, 1.15049146e-01,
          1.46283597e-01, 5.26912250e-02, 1.57094553e-01, 6.44134730e-02,
          1.36449143e-01, 1.10947117e-01, 1.15777038e-01, 2.05256984e-01,
          2.31860965e-01, 1.46950588e-01, 6.24196790e-03, 0.,
          1.07085230e-02, 7.95030743e-02, 4.56414968e-02, 1.41566679e-01,
          1.59569725e-01, 1.19336814e-01, 6.73581958e-02, 9.44219250e-03,
          6.42397776e-02, 1.15878701e-01, 1.26851782e-01, 2.95739472e-01,
          1.13439254e-01, 8.33276734e-02, 7.66764954e-02, 0., 0.,
          2.23384619e-01, 2.36252397e-01, 1.67095914e-01, 1.28553629e-01,
          6.27011731e-02, 0., 1.18409321e-01, 5.48380576e-02,
          9.00897086e-02, 0., 8.25313851e-02, 7.49094561e-02,
          6.24196790e-03, 9.47431289e-03, 6.66511059e-03, 1.35579854e-02,
          7.92619679e-03, 2.93291956e-02, 2.13424101e-01, 2.42792666e-01,
          1.53775856e-01, 1.18919499e-01, 8.14027861e-02, 1.14371449e-01,
          9.77891609e-02, 4.57890034e-02, 6.66511059e-03 ]
      - [ 3.01140875e-01, 9.18805450e-02, 8.14547539e-02, 4.69820984e-02,
          2.66898535e-02, 2.92972513e-02, 7.96264317e-03, 1.91919357e-01,
          1.54007524e-01, 9.97172669e-02, 3.86040248e-02, 5.26057370e-03,
          1.22552048e-02, 9.34173837e-02, 9.88469347e-02, 3.06356758e-01,
          2.24792495e-01, 1.01961017e-01, 6.25591166e-03, 5.33746183e-02,
          1.08639589e-02, 0., 7.03786984e-02, 1.55429378e-01,
          1.06681667e-01, 1.50817968e-02, 0., 7.30212703e-02,
          1.15184918e-01, 1.24959022e-01, 1.48870066e-01, 2.81526983e-01,
          9.76699814e-02, 7.47720227e-02, 0., 9.58794430e-02, 0.,
          2.28813931e-01, 1.91244185e-01, 3.13437372e-01, 1.47481278e-01,
          0., 8.31897482e-02, 7.88811445e-02, 7.04325810e-02,
          8.60223770e-02, 6.68586269e-02, 1.35946169e-01, 4.18358017e-03,
          6.09328132e-03, 0., 0., 0., 0., 1.22686867e-02, 1.69506997e-01,
          2.64086545e-01, 1.22452915e-01, 1.89178854e-01, 1.31013215e-01,
          1.11425035e-01, 6.93409070e-02, 3.51795764e-03, 5.26057370e-03 ]
      - [ 2.50322849e-01, 1.52237043e-01, 8.06935504e-02, 5.40130883e-02,
          1.42190345e-02, 6.75535873e-02, 1.52599826e-01, 1.03227556e-01,
          1.54822871e-01, 7.72288442e-02, 5.33082522e-02, 6.43691272e-02,
          5.31669147e-02, 1.28470242e-01, 1.16446920e-01, 2.45866537e-01,
          1.71021238e-01, 1.90599859e-02, 7.44073372e-03, 4.79467073e-03,
          1.33305211e-02, 5.08563295e-02, 7.32909963e-02, 1.47346959e-01,
          1.27258807e-01, 7.13096708e-02, 7.30659366e-02, 7.43647739e-02,
          1.15418518e-02, 1.12359218e-01, 9.96158049e-02, 2.78298378e-01,
          1.37826234e-01, 7.97585770e-02, 1.25536382e-01, 9.53153670e-02,
          5.83554581e-02, 2.49264628e-01, 1.65460646e-01, 2.81867415e-01,
          1.44637436e-01, 9.79283303e-02, 4.94857393e-02, 9.42123234e-02,
          4.77548540e-02, 1.36174023e-01, 8.22143778e-02, 1.06928006e-01,
          7.76779652e-02, 1.04532994e-01, 3.96269187e-02, 6.08838489e-03,
          1.37481876e-02, 0., 7.90800061e-03, 1.46870092e-01,
          2.88285434e-01, 1.16950862e-01, 1.01007491e-01, 1.75205559e-01,
          1.39635772e-01, 5.89395761e-02, 8.81166756e-02, 1.78091571e-01 ]
      - [ 2.16798156e-01, 1.92410633e-01, 3.27468552e-02, 1.04912013e-01,
          1.21811189e-01, 1.10143103e-01, 6.80427626e-02, 1.04678668e-01,
          7.57349879e-02, 9.80484560e-02, 6.13032803e-02, 1.01640508e-01,
          1.21862836e-01, 1.57795653e-01, 1.78588316e-01, 1.34227186e-01,
          1.71382621e-01, 1.36160135e-01, 1.10238634e-01, 5.48464023e-02,
          5.36415912e-02, 0., 6.74887821e-02, 1.44499585e-01,
          1.13407955e-01, 0., 4.75565791e-02, 5.40337078e-02,
          1.07800188e-02, 7.73671037e-03, 1.10080250e-01, 2.69683003e-01,
          1.04781449e-01, 1.16357572e-01, 1.18533686e-01, 6.28677607e-02,
          1.61107495e-01, 1.78695053e-01, 1.74991667e-01, 2.85736024e-01,
          1.03546247e-01, 9.22840908e-02, 8.40907246e-02, 1.11778900e-01,
          9.57148373e-02, 1.04973800e-01, 1.05687775e-01, 0.,
          1.41540661e-01, 0., 9.96410921e-02, 0., 8.47074464e-02,
          7.82398805e-02, 6.43052533e-02, 2.41927534e-01, 2.29374617e-01,
          1.51233986e-01, 1.26741797e-01, 1.36161223e-01, 1.46900982e-01,
          0., 9.47050378e-02, 1.35653839e-01 ]
      - [ 1.86361566e-01, 1.90319672e-01, 1.53891355e-01, 8.82080346e-02,
          1.16914578e-01, 1.41737670e-01, 8.06785449e-02, 5.02210623e-03,
          9.46468860e-02, 9.57203843e-03, 8.96829516e-02, 9.07508954e-02,
          1.17700286e-01, 1.71833679e-01, 1.81062460e-01, 1.47291794e-01,
          2.45254710e-01, 7.86570758e-02, 4.78840731e-02, 8.96158516e-02,
          9.07616764e-02, 6.61423877e-02, 7.54691139e-02, 1.33359939e-01,
          1.15756571e-01, 6.21364675e-02, 4.98513728e-02, 5.35560064e-02,
          1.16996625e-02, 1.41427880e-02, 4.36505079e-02, 2.47133479e-01,
          7.98786804e-03, 9.70617235e-02, 9.06033069e-02, 7.77311251e-02,
          1.79906413e-01, 1.92361251e-01, 1.65107682e-01, 2.60234505e-01,
          1.73224136e-01, 9.06777605e-02, 9.04139355e-02, 7.14516342e-02,
          8.47837925e-02, 9.79194716e-02, 8.31158608e-02, 1.50638208e-01,
          1.70923397e-01, 6.65587783e-02, 6.69513792e-02, 7.10233068e-03,
          7.05587566e-02, 6.11791164e-02, 7.25338683e-02, 2.24738657e-01,
          2.44401559e-01, 9.22201574e-02, 1.58899412e-01, 1.31855026e-01,
          1.26889169e-01, 7.58379744e-03, 1.02378689e-01, 9.62669626e-02 ]
      - [ 1.99977741e-01, 2.50563532e-01, 1.08798593e-01, 1.45181715e-01,
          1.70833077e-02, 1.40876889e-01, 1.13161430e-01, 1.45309210e-01,
          1.50329456e-01, 1.01988681e-01, 1.26444086e-01, 9.39287990e-02,
          1.60933379e-02, 1.35875240e-01, 1.79821983e-01, 2.20696747e-01,
          2.56272972e-01, 9.30499509e-02, 0., 0., 4.17977311e-02, 0.,
          1.11611217e-01, 1.51419789e-01, 1.63585022e-01, 8.19854587e-02,
          1.28347173e-01, 7.49114975e-02, 1.63658708e-02, 1.40737146e-01,
          1.03436299e-01, 2.91055918e-01, 5.84492460e-03, 9.62057188e-02,
          1.11193582e-01, 2.19322015e-02, 3.74041907e-02, 1.52133629e-01,
          1.81114838e-01, 2.97427446e-01, 8.55619088e-02, 5.73482998e-02,
          6.76471740e-02, 8.11544731e-02, 5.19695459e-03, 8.62136334e-02,
          3.09104379e-02, 1.14992633e-01, 7.15854159e-03, 9.90529638e-03,
          0., 6.59921486e-03, 1.01237064e-02, 0., 2.53429990e-02,
          1.98278472e-01, 2.25903258e-01, 9.27903503e-02, 1.41341597e-01,
          9.43670273e-02, 1.20010279e-01, 1.11766405e-01, 5.59662692e-02,
          0. ]
      - [ 2.65681356e-01, 1.07026048e-01, 1.58628330e-01, 1.13760002e-01,
          6.46977499e-02, 3.56323607e-02, 9.10316482e-02, 1.10997586e-02,
          1.25216827e-01, 9.99268070e-02, 9.90617424e-02, 8.85166526e-02,
          1.17150895e-01, 9.58341360e-02, 9.73056927e-02, 2.78147519e-01,
          2.81439900e-01, 5.48924245e-02, 1.09480232e-01, 9.43923183e-03,
          2.89267711e-02, 0., 0., 9.11552683e-02, 4.74293195e-02, 0.,
          3.84688601e-02, 7.04561397e-02, 9.11727548e-02, 1.11561306e-01,
          1.85435310e-01, 2.32370794e-01, 1.52896538e-01, 8.12456384e-02,
          0., 0., 0., 2.14883417e-01, 2.12595984e-01, 2.90001124e-01,
          1.93912104e-01, 5.10236993e-02, 0., 5.97068779e-02,
          1.11595184e-01, 3.29794027e-02, 9.05030444e-02, 9.78041068e-02,
          4.64437762e-03, 3.23159471e-02, 0., 8.25900119e-03,
          4.64437762e-03, 0., 8.97775888e-02, 2.32146546e-01,
          2.71696031e-01, 2.02139810e-01, 1.15120389e-01, 5.57178520e-02,
          1.19165063e-01, 6.94496417e-03, 5.23899123e-02, 0. ]
      - [ 1.93453401e-01, 1.96730822e-01, 1.11298792e-01, 1.24575280e-01,
          1.29378244e-01, 8.75017568e-02, 8.94974992e-02, 8.61407593e-02,
          7.51491785e-02, 1.06493682e-01, 9.90908444e-02, 1.02730906e-02,
          1.36367068e-01, 6.20782934e-02, 1.53210014e-01, 2.03024343e-01,
          2.72270560e-01, 1.17207840e-01, 1.25602111e-01, 9.64648053e-02,
          2.17116345e-02, 5.28390817e-02, 8.11333805e-02, 1.10710494e-01,
          6.93947226e-02, 1.40226126e-01, 6.53685210e-03, 5.49681531e-03,
          5.68500794e-02, 1.01445071e-01, 1.62510961e-01, 2.25252360e-01,
          1.07078375e-02, 1.13111429e-01, 0., 0., 1.06034249e-01,
          2.06622079e-01, 2.19174087e-01, 2.75766581e-01, 1.70219131e-02,
          9.29386243e-02, 8.21591690e-02, 5.02375364e-02, 0.,
          8.76727030e-02, 0., 1.76914260e-01, 1.19173318e-01,
          6.52994663e-02, 4.67850938e-02, 0., 1.40462965e-02,
          6.46712333e-02, 8.48515108e-02, 2.43559107e-01, 2.73895144e-01,
          1.65010169e-01, 6.24158569e-02, 1.18506707e-01, 1.31739348e-01,
          9.37388837e-02, 0., 7.62202144e-02 ]
      - [ 2.41293654e-01, 1.76127851e-01, 1.11388199e-01, 7.24959597e-02,
          2.65004132e-02, 1.08013086e-01, 1.03487507e-01, 1.04606122e-01,
          7.08948895e-02, 8.57776478e-02, 7.13607892e-02, 1.04170531e-01,
          1.04819424e-01, 1.12771459e-01, 1.52037039e-01, 1.81692734e-01,
          2.30299130e-01, 1.34607628e-01, 8.71372074e-02, 1.00851730e-01,
          1.05208792e-01, 0., 8.08577389e-02, 1.15470007e-01,
          1.32480010e-01, 6.89855814e-02, 6.29515527e-03, 9.34905484e-02,
          8.38866606e-02, 1.23823278e-01, 1.21552281e-01, 1.95513695e-01,
          8.29442888e-02, 1.11369736e-01, 8.89477059e-02, 0.,
          1.26229450e-01, 2.10549325e-01, 2.27856547e-01, 2.66616821e-01,
          1.12350330e-01, 0., 8.92986730e-02, 1.12889729e-01, 0.,
          8.53912607e-02, 1.13710031e-01, 1.13779061e-01, 1.32002249e-01,
          1.12562098e-01, 2.83633415e-02, 0., 7.96662737e-03,
          6.29515527e-03, 1.15995809e-01, 2.44092435e-01, 1.93794340e-01,
          1.85418516e-01, 5.03427871e-02, 1.45557135e-01, 1.10484868e-01,
          1.48202822e-01, 6.48920462e-02, 9.76848304e-02 ]
      - [ 3.24127406e-01, 8.35086629e-02, 1.64664552e-01, 8.37700441e-02,
          5.87650985e-02, 4.16086800e-02, 9.29109287e-03, 1.38069376e-01,
          1.45594567e-01, 7.28392527e-02, 1.00456856e-01, 1.03141032e-01,
          8.58341381e-02, 1.41721502e-01, 1.05284050e-01, 2.31342599e-01,
          2.22862482e-01, 1.22060463e-01, 1.24756850e-01, 4.14798819e-02,
          5.13539948e-02, 5.33506088e-02, 5.90837821e-02, 7.04134554e-02,
          6.61294237e-02, 1.98651925e-02, 5.38522191e-02, 1.04351684e-01,
          1.89701557e-01, 1.16568737e-01, 1.27602547e-01, 2.32760072e-01,
          6.26797006e-02, 8.11548159e-02, 6.08369783e-02, 1.07216664e-01,
          0., 1.94942325e-01, 2.49287799e-01, 3.00470054e-01,
          1.14139400e-01, 8.87919888e-02, 8.34200233e-02, 3.21143530e-02,
          8.14195499e-02, 9.80936289e-02, 8.54717493e-02, 9.08654109e-02,
          1.02294171e-02, 4.71819080e-02, 1.00935027e-02, 1.17635885e-02,
          9.48846526e-03, 2.67967768e-02, 1.98716540e-02, 1.65211692e-01,
          2.11642474e-01, 2.20244333e-01, 1.36888951e-01, 1.89282522e-01,
          4.17614216e-03, 0., 0., 5.25122089e-03 ]
      - [ 1.86278760e-01, 1.18851006e-01, 1.78812683e-01, 1.82456002e-01,
          1.60603933e-02, 7.98891485e-02, 1.54657103e-02, 5.54799438e-02,
          1.28884777e-01, 5.14960811e-02, 1.22564971e-01, 8.11372995e-02,
          1.37938350e-01, 9.18193683e-02, 1.47673115e-01, 2.57866830e-01,
          2.13618621e-01, 8.21065977e-02, 8.05244744e-02, 6.39207736e-02,
          1.09890783e-02, 6.61962153e-03, 5.74283004e-02, 6.03941754e-02,
          9.11706313e-02, 1.05287824e-02, 4.52942736e-02, 1.07883357e-01,
          1.10021725e-01, 7.37215653e-02, 1.22361958e-01, 2.71808147e-01,
          8.18296075e-02, 6.61275983e-02, 1.37704641e-01, 8.64868239e-02,
          2.19411343e-01, 1.43485099e-01, 1.51328832e-01, 3.08990479e-01,
          1.56788588e-01, 1.05555572e-01, 3.96331809e-02, 0.,
          8.82669017e-02, 1.05021678e-01, 9.16796550e-02, 0.,
          6.69277683e-02, 1.01161031e-02, 0., 0., 1.14415279e-02,
          7.55866989e-03, 1.39282700e-02, 2.13043556e-01, 2.54949838e-01,
          1.50184512e-01, 1.57184720e-01, 1.69513121e-01, 1.47749543e-01,
          8.83632004e-02, 4.84585203e-02, 9.10644904e-02 ]
      - [ 2.29943737e-01, 1.75773829e-01, 1.26843929e-01, 1.19611584e-01,
          1.35282770e-01, 0., 7.27341175e-02, 9.54943374e-02,
          5.77948689e-02, 7.42836520e-02, 4.70388234e-02, 1.10171080e-01,
          8.03886950e-02, 1.78287849e-01, 1.32671610e-01, 1.57094628e-01,
          2.30799869e-01, 1.09347053e-01, 1.10208243e-02, 1.08352736e-01,
          7.08758011e-02, 4.47442532e-02, 7.79955089e-02, 6.40537366e-02,
          6.23879693e-02, 6.61834925e-02, 8.66403617e-03, 1.17757041e-02,
          1.11074857e-01, 4.75787334e-02, 1.22059375e-01, 2.45954797e-01,
          1.17888860e-01, 1.04006499e-01, 1.14528395e-01, 5.65370545e-02,
          9.39526707e-02, 2.14964807e-01, 2.30304390e-01, 2.68956482e-01,
          1.31427258e-01, 7.25347996e-02, 1.01354308e-01, 7.49546811e-02,
          8.94560441e-02, 1.26802906e-01, 8.39069113e-02, 0.,
          1.58623293e-01, 6.62140176e-02, 5.07595874e-02, 7.11060017e-02,
          6.42453805e-02, 7.41630644e-02, 6.97006509e-02, 2.82633722e-01,
          2.08768427e-01, 1.80961132e-01, 1.00790836e-01, 1.06189750e-01,
          1.61281839e-01, 3.84137370e-02, 6.82033971e-02, 6.45302907e-02 ]
      - [ 2.63452262e-01, 1.76159263e-01, 1.12695947e-01, 1.37184495e-02,
          1.13146320e-01, 7.25940913e-02, 4.23863195e-02, 7.28691742e-03,
          1.28688380e-01, 1.35156652e-02, 1.16847515e-01, 7.21648335e-02,
          1.25344485e-01, 8.87357518e-02, 1.82887748e-01, 2.13243321e-01,
          2.04563439e-01, 1.06039576e-01, 7.97555521e-02, 4.17970791e-02,
          9.38731730e-02, 0., 7.51086771e-02, 1.13483541e-01,
          9.43857804e-02, 2.15787087e-02, 6.12754282e-03, 9.25309863e-03,
          1.65271565e-01, 8.76149461e-02, 1.48688644e-01, 2.28687376e-01,
          7.75451120e-03, 9.04132873e-02, 7.64603168e-02, 8.29309896e-02,
          1.13422334e-01, 2.34869227e-01, 2.37748533e-01, 2.69298136e-01,
          1.10866264e-01, 1.00390531e-01, 1.16180331e-01, 8.22041556e-02,
          5.79507230e-03, 1.37546822e-01, 3.44577059e-03, 1.03210509e-01,
          9.74577963e-02, 6.74774870e-02, 0., 4.26898636e-02,
          1.12826489e-02, 8.66565388e-03, 6.01098835e-02, 1.64977625e-01,
          2.75656939e-01, 1.61801159e-01, 1.08884476e-01, 1.45408869e-01,
          1.54109091e-01, 1.21350132e-01, 5.14418371e-02, 8.80095586e-02 ]
      - [ 2.86368310e-01, 2.32387409e-01, 1.05589665e-01, 7.45675638e-02,
          1.68073084e-02, 6.40181750e-02, 8.66115019e-02, 1.32947296e-01,
          1.27023771e-01, 8.74997526e-02, 6.16408847e-02, 0.,
          4.65363450e-02, 1.54901236e-01, 1.71358526e-01, 1.21688068e-01,
          1.72924489e-01, 9.18788556e-03, 7.43995905e-02, 8.73655304e-02,
          9.84209217e-03, 6.95600808e-02, 3.70122027e-03, 7.51425922e-02,
          1.75541081e-02, 6.59736395e-02, 7.11200982e-02, 6.92794845e-02,
          1.40893087e-01, 1.80198416e-01, 1.11747913e-01, 2.92067140e-01,
          1.17734447e-01, 1.12377487e-01, 0., 0., 0., 1.26008660e-01,
          2.07733944e-01, 3.18813384e-01, 1.96263433e-01, 1.41227156e-01,
          7.84016922e-02, 1.44973204e-01, 0., 1.17817953e-01,
          1.57492727e-01, 1.44925624e-01, 6.13820776e-02, 1.04686320e-02,
          5.18739782e-02, 9.95626114e-03, 1.29336882e-02, 1.36651620e-02,
          1.40293241e-01, 2.28395015e-01, 2.53776431e-01, 9.27178636e-02,
          6.58180378e-03, 1.09546073e-01, 7.02889189e-02, 0.,
          7.40244053e-03, 5.53461537e-03 ]
      - [ 1.59405962e-01, 1.84456229e-01, 1.43790483e-01, 1.66216761e-01,
          1.25679180e-01, 9.05093178e-02, 9.48053077e-02, 4.98112142e-02,
          9.12073329e-02, 6.02269247e-02, 8.19393322e-02, 8.80460069e-03,
          1.97028965e-01, 1.63418829e-01, 1.57252327e-01, 1.48093820e-01,
          2.75986075e-01, 1.10497065e-01, 8.26791227e-02, 4.84861620e-02,
          1.00444660e-01, 1.27286553e-01, 1.02513589e-01, 8.20938200e-02,
          5.45233395e-03, 4.68999594e-02, 0., 6.33178651e-02,
          1.63178891e-02, 7.06319511e-02, 8.28439184e-03, 2.33479604e-01,
          2.94087343e-02, 1.20789118e-01, 1.19240068e-01, 7.77696148e-02,
          1.10929288e-01, 1.82179421e-01, 1.65546477e-01, 2.85454869e-01,
          9.53399763e-02, 7.61438012e-02, 1.02540493e-01, 9.12294239e-02,
          0., 1.43543229e-01, 7.31111914e-02, 9.66050401e-02,
          9.38971117e-02, 5.81613630e-02, 1.20703571e-01, 9.64965150e-02,
          6.11714460e-02, 9.05929804e-02, 1.06224567e-01, 2.52608180e-01,
          2.47803524e-01, 1.12681434e-01, 9.00422633e-02, 1.45422995e-01,
          1.17513575e-01, 6.44683987e-02, 5.75473569e-02, 1.08759768e-01 ]
      - [ 2.08283380e-01, 1.16149418e-01, 1.78333044e-01, 1.15760928e-02,
          1.15403950e-01, 1.12655409e-01, 7.91542605e-02, 1.06550865e-01,
          8.74596313e-02, 1.03028290e-01, 1.04407646e-01, 7.39157572e-02,
          1.03458717e-01, 9.60457176e-02, 1.63307473e-01, 2.43554011e-01,
          2.24094093e-01, 7.47125372e-02, 4.09309231e-02, 7.44342851e-03,
          6.88342229e-02, 5.21036498e-02, 1.11777440e-01, 1.52379915e-01,
          1.26636118e-01, 9.95544158e-03, 7.94801861e-03, 1.01541601e-01,
          1.32364957e-02, 9.50823873e-02, 1.12852246e-01, 2.29856610e-01,
          1.16295762e-01, 5.77950813e-02, 5.50470203e-02, 0.,
          1.64360344e-01, 6.54116794e-02, 2.19631553e-01, 3.13956767e-01,
          1.61577180e-01, 4.95175421e-02, 7.96995834e-02, 0.,
          7.24992761e-03, 0., 8.89756158e-02, 1.89090207e-01,
          1.59208775e-01, 7.52243027e-02, 1.01074772e-02, 3.58965322e-02,
          1.59387030e-02, 0., 1.10610113e-01, 2.41688535e-01,
          1.91580832e-01, 1.85992822e-01, 8.95492211e-02, 7.44347498e-02,
          1.38205752e-01, 8.63337666e-02, 1.29230663e-01, 1.30324408e-01 ]
      - [ 2.41607770e-01, 1.42322570e-01, 8.68251994e-02, 6.41549453e-02,
          1.25426933e-01, 6.10708725e-03, 1.29896715e-01, 8.30043294e-03,
          1.25692248e-01, 8.18008557e-02, 6.86877072e-02, 9.59509462e-02,
          1.52427584e-01, 1.61440209e-01, 1.43974781e-01, 2.28246719e-01,
          2.83824652e-01, 7.06074014e-02, 1.08390048e-01, 1.28078563e-02,
          7.96097964e-02, 6.10708725e-03, 6.61911294e-02, 1.37271717e-01,
          1.22275516e-01, 6.68223277e-02, 5.49570806e-02, 7.26259174e-03,
          4.71854545e-02, 8.45006108e-02, 8.17155838e-02, 2.02987090e-01,
          9.70521271e-02, 7.83483982e-02, 1.24552272e-01, 8.80980194e-02,
          0., 2.36562699e-01, 1.99984312e-01, 2.11800620e-01,
          2.07365692e-01, 1.30380869e-01, 1.06550410e-01, 6.56768307e-02,
          8.63892287e-02, 7.32470304e-02, 0., 1.31967142e-01,
          1.15054585e-01, 8.63441229e-02, 0., 4.82942015e-02,
          6.56141201e-03, 4.84241694e-02, 7.45245516e-02, 1.98053524e-01,
          2.59678572e-01, 1.31196052e-01, 1.33034006e-01, 1.20717138e-01,
          1.28775939e-01, 0., 9.09961984e-02, 1.18939780e-01 ]
      - [ 2.94706553e-01, 2.13307470e-01, 1.02308720e-01, 1.24194816e-01,
          7.75460079e-02, 1.57148346e-01, 1.39544010e-01, 5.42570464e-03,
          1.84184000e-01, 1.23613544e-01, 1.12292908e-01, 1.13088571e-01,
          1.53508514e-01, 1.55750841e-01, 1.27167687e-01, 7.99460486e-02,
          2.11705163e-01, 1.47291601e-01, 1.53827652e-01, 5.42570464e-03,
          1.05693135e-02, 7.35722855e-02, 8.77263919e-02, 1.35769069e-01,
          1.69678032e-01, 1.25050724e-01, 7.82731846e-02, 7.62510598e-02,
          8.82056653e-02, 6.53229877e-02, 8.50685760e-02, 2.89280266e-01,
          4.31490410e-03, 1.06060818e-01, 1.25602528e-01, 8.96470845e-02,
          6.93229167e-03, 1.59436107e-01, 1.47283942e-01, 2.87997156e-01,
          6.92470893e-02, 7.51818269e-02, 0., 7.67310522e-03,
          1.05305016e-01, 9.02821198e-02, 0., 9.55403894e-02,
          9.80374124e-03, 2.78722793e-02, 0., 0., 4.44149449e-02,
          3.59078869e-02, 6.69951141e-02, 2.15223789e-01, 1.92420289e-01,
          4.77329046e-02, 1.18497230e-01, 1.57561079e-01, 1.42301485e-01,
          2.62632966e-02, 3.70495096e-02, 7.66483396e-02 ]
      - [ 2.16361642e-01, 1.44650549e-01, 9.91180241e-02, 1.11611381e-01,
          7.82011822e-02, 9.85598862e-02, 8.24451074e-02, 1.10136256e-01,
          1.45647720e-01, 8.79481956e-02, 1.09800138e-01, 4.78132218e-02,
          1.46439537e-01, 1.23466268e-01, 1.54470503e-01, 1.86595097e-01,
          1.55376121e-01, 1.00223921e-01, 8.44802931e-02, 8.36205482e-03,
          1.18843643e-02, 0., 1.03841349e-01, 9.17600002e-03,
          1.16816245e-01, 1.14867374e-01, 2.76244637e-02, 5.91198504e-02,
          9.33458731e-02, 5.38985431e-02, 1.01920046e-01, 2.40828365e-01,
          1.80071384e-01, 1.31357595e-01, 1.14638358e-01, 7.86591321e-02,
          1.66172251e-01, 1.65110737e-01, 2.27011725e-01, 2.87461787e-01,
          1.10750057e-01, 7.81089514e-02, 1.02158017e-01, 7.61575475e-02,
          1.28586948e-01, 4.89026830e-02, 9.61689726e-02, 1.47233799e-01,
          9.19436663e-02, 7.74930045e-02, 0., 0., 4.16008085e-02,
          2.36924179e-02, 0., 1.71649143e-01, 2.11570606e-01,
          1.92806602e-01, 1.45934165e-01, 1.97813854e-01, 4.26792242e-02,
          0., 5.98236658e-02, 1.91249132e-01 ]
      - [ 2.86546260e-01, 1.91060841e-01, 5.70788868e-02, 8.93254131e-02,
          1.27101392e-02, 5.15567437e-02, 9.60531179e-03, 8.14399347e-02,
          1.57900915e-01, 5.48959849e-03, 6.90280460e-03, 1.15739867e-01,
          6.87927380e-02, 1.35790899e-01, 1.69134885e-01, 2.76211858e-01,
          1.50440916e-01, 1.21951878e-01, 0., 1.49262026e-02,
          1.42886648e-02, 4.67238948e-02, 9.50826332e-03, 1.16926439e-01,
          6.38504624e-02, 8.67981743e-03, 6.90280460e-03, 8.20886437e-03,
          1.31256804e-01, 1.63706154e-01, 1.40207514e-01, 2.72223979e-01,
          0., 7.36184195e-02, 7.79465735e-02, 4.74820435e-02,
          7.55264014e-02, 1.86696574e-01, 2.78003961e-01, 2.61206210e-01,
          2.17355311e-01, 1.19903170e-01, 8.76534265e-03, 7.61270374e-02,
          1.33883968e-01, 8.85100737e-02, 0., 8.09248388e-02,
          1.42650604e-02, 8.67981743e-03, 0., 0., 7.41632516e-03,
          2.74954122e-02, 1.12494715e-01, 1.86101988e-01, 1.62503541e-01,
          1.83850020e-01, 2.01836571e-01, 1.73112005e-01, 1.30814835e-01,
          4.59654555e-02, 3.88173223e-03, 5.80454385e-03 ]
      - [ 2.49800771e-01, 1.65765271e-01, 1.29077241e-01, 9.40929130e-02,
          7.99306631e-02, 9.91313085e-02, 0., 6.55591190e-02,
          1.69570222e-01, 7.45831504e-02, 1.50133535e-01, 1.12723976e-01,
          8.86650160e-02, 1.59078032e-01, 2.02000886e-01, 2.12998286e-01,
          2.62916178e-01, 1.30161658e-01, 8.04037750e-02, 8.96132365e-02,
          1.75125152e-02, 1.09611720e-01, 1.06967976e-02, 7.73372725e-02,
          8.27447399e-02, 9.43767875e-02, 6.87718838e-02, 4.19237614e-02,
          4.92482781e-02, 4.34287637e-02, 1.36077419e-01, 2.35205188e-01,
          8.42093751e-02, 0., 9.30157006e-02, 6.38542846e-02,
          6.80682138e-02, 1.87093183e-01, 1.78281948e-01, 2.77858824e-01,
          2.17618912e-01, 8.56003352e-03, 5.66792525e-02, 1.23898156e-01,
          2.07200125e-02, 8.87924656e-02, 5.14091700e-02, 1.41326949e-01,
          9.62615944e-03, 1.25994356e-02, 0., 7.86409751e-02,
          7.45891854e-02, 6.12252541e-02, 3.17565314e-02, 2.35690221e-01,
          2.16676950e-01, 1.08982511e-01, 1.22523710e-01, 2.07193732e-01,
          3.54187191e-02, 7.67928921e-03, 5.34839882e-03, 5.65524353e-03 ]
      - [ 2.83773214e-01, 2.04035267e-01, 1.32963270e-01, 1.16736896e-01,
          8.15078244e-02, 8.48389268e-02, 0., 1.52587950e-01,
          8.05705264e-02, 8.36875290e-02, 4.40441072e-02, 1.48504972e-01,
          8.63040313e-02, 1.24070056e-01, 1.63880289e-01, 1.55361310e-01,
          1.51835978e-01, 8.92211273e-02, 6.34814426e-02, 7.63668492e-03,
          1.18242092e-02, 6.42166100e-03, 1.23305641e-01, 9.31125581e-02,
          1.21464636e-02, 6.93414733e-02, 6.68293163e-02, 6.34086877e-02,
          1.32632554e-01, 1.86821878e-01, 1.64433733e-01, 2.76732564e-01,
          8.38139802e-02, 1.05721526e-01, 0., 8.34125280e-02, 0.,
          1.78287879e-01, 2.32919380e-01, 2.65023142e-01, 2.09564164e-01,
          1.08160824e-01, 6.38357997e-02, 7.51831308e-02, 1.34024099e-01,
          0., 1.32045269e-01, 1.35475710e-01, 1.92830022e-02, 0.,
          9.74705815e-03, 6.85698539e-03, 8.12672265e-03, 0.,
          8.09946135e-02, 2.34734610e-01, 2.07057625e-01, 1.40713349e-01,
          1.00051984e-01, 1.44283801e-01, 1.14274912e-01, 0.,
          3.61116533e-03, 5.39995171e-03 ]
      - [ 2.48639137e-01, 1.98814809e-01, 1.33335814e-01, 2.86535714e-02,
          1.29395863e-02, 1.06129490e-01, 1.11152656e-01, 1.34666637e-01,
          1.77430466e-01, 8.48620106e-03, 8.88959393e-02, 0.,
          1.27754986e-01, 6.22560903e-02, 1.56053931e-01, 2.41223589e-01,
          2.29599595e-01, 1.63233876e-01, 6.98674843e-03, 6.76777363e-02,
          6.22741356e-02, 3.68596390e-02, 3.44082736e-03, 1.08461536e-01,
          1.51822746e-01, 7.01985927e-03, 7.84771517e-02, 5.14523732e-03,
          1.48451952e-02, 1.18769884e-01, 1.76858485e-01, 2.62210548e-01,
          8.43012631e-02, 1.05959296e-01, 6.97631091e-02, 7.88095668e-02,
          0., 1.87846497e-01, 2.45056570e-01, 2.54465133e-01,
          1.28027320e-01, 7.66036212e-02, 7.17531443e-02, 5.14575131e-02,
          0., 1.32507339e-01, 1.18152484e-01, 0., 7.08730333e-03,
          5.95968775e-03, 6.88192397e-02, 7.60787874e-02, 3.09321787e-02,
          7.28649348e-02, 2.44331639e-02, 2.05251634e-01, 2.44476914e-01,
          1.53851300e-01, 1.53157681e-01, 1.83144718e-01, 1.26447696e-02,
          0., 3.44082736e-03, 0. ]
      - [ 2.53703445e-01, 1.53967157e-01, 1.52324468e-01, 1.19318828e-01,
          7.78622106e-02, 1.18307933e-01, 7.97956139e-02, 1.46477759e-01,
          8.79818499e-02, 9.51243937e-02, 2.53468603e-02, 1.13456681e-01,
          8.78580362e-02, 1.44005328e-01, 7.57341459e-02, 2.15345591e-01,
          2.57170051e-01, 1.01551190e-01, 0., 4.82866131e-02,
          6.89753890e-02, 5.12595735e-02, 4.50913869e-02, 1.22135326e-01,
          8.34001079e-02, 1.06117740e-01, 6.49246350e-02, 8.51714835e-02,
          7.02069327e-02, 9.86631587e-02, 1.73136666e-01, 2.34737307e-01,
          8.05062056e-02, 7.74492547e-02, 0., 0., 1.55776888e-01,
          1.62481919e-01, 2.07832217e-01, 3.01645070e-01, 7.70992041e-02,
          8.16850662e-02, 7.14927316e-02, 4.81423549e-03, 1.07710972e-01,
          6.26844317e-02, 1.00527346e-01, 1.52946427e-01, 8.27558264e-02,
          3.32944132e-02, 7.49683455e-02, 0., 9.04489961e-03,
          1.79772712e-02, 1.09414503e-01, 2.30292007e-01, 2.47462302e-01,
          1.45532191e-01, 7.93389603e-02, 1.18855104e-01, 1.51146755e-01,
          8.81734192e-02, 8.14572349e-02, 0. ]
      - [ 2.42400229e-01, 1.67184547e-01, 1.13960341e-01, 1.48382887e-01,
          9.22821984e-02, 1.03206210e-01, 7.43216500e-02, 0.,
          7.79585391e-02, 9.93535575e-03, 8.85627642e-02, 7.41742104e-02,
          1.06538117e-01, 1.58360764e-01, 1.72570199e-01, 1.42183140e-01,
          2.44853988e-01, 1.74762964e-01, 1.49209097e-01, 9.86137390e-02,
          1.30575746e-02, 6.18356206e-02, 1.18750213e-02, 5.61535079e-03,
          1.16346352e-01, 3.35293487e-02, 6.67781522e-03, 5.88510633e-02,
          1.05264351e-01, 1.85169522e-02, 3.28593105e-02, 2.43964538e-01,
          1.12225682e-01, 6.42355829e-02, 0., 0., 7.56467953e-02,
          2.63568461e-01, 1.86388522e-01, 2.74465829e-01, 1.02695048e-01,
          6.08425587e-02, 7.73543045e-02, 0., 1.27944693e-01, 0.,
          9.46090370e-02, 9.86113772e-02, 1.01054497e-01, 1.37939155e-01,
          8.71432852e-03, 7.21602887e-02, 1.16276532e-01, 6.03603981e-02,
          1.00263953e-01, 2.59297907e-01, 2.43236676e-01, 1.34738967e-01,
          1.72305852e-01, 1.85800508e-01, 7.17459805e-03, 5.47025390e-02,
          0., 0. ]
      - [ 2.01515272e-01, 2.17562124e-01, 1.30315140e-01, 9.53686386e-02,
          1.30303744e-02, 1.36181280e-01, 9.49580744e-02, 1.07399851e-01,
          6.96130246e-02, 9.18561369e-02, 9.34198871e-02, 9.44718719e-02,
          1.21567182e-01, 1.45300552e-01, 1.26845479e-01, 2.19424874e-01,
          2.65020043e-01, 9.65231135e-02, 0., 4.90416959e-03,
          6.67757615e-02, 6.07749261e-02, 8.25244859e-02, 1.46680743e-01,
          1.36136040e-01, 9.46244784e-03, 7.50728324e-02, 6.55343086e-02,
          7.69512132e-02, 7.76813626e-02, 1.31739944e-01, 2.17725724e-01,
          7.89827332e-02, 0., 1.17734738e-01, 1.00569174e-01,
          1.78664818e-01, 1.15265518e-01, 2.01845437e-01, 3.02471370e-01,
          1.06540412e-01, 8.71365741e-02, 1.02163218e-01, 7.99500272e-02,
          2.16012001e-02, 1.26525983e-01, 8.17561522e-02, 9.92858112e-02,
          9.74241346e-02, 7.98719749e-02, 6.65940158e-03, 6.22742949e-03,
          0., 5.24054095e-02, 2.73822825e-02, 2.28238463e-01,
          2.46163279e-01, 7.92990252e-02, 1.53533310e-01, 7.82060847e-02,
          1.61386847e-01, 0., 9.48638096e-02, 1.21341653e-01 ]
      - [ 2.45250240e-01, 1.84068710e-01, 8.75887051e-02, 8.45252909e-03,
          3.72334011e-02, 8.28236789e-02, 1.16807245e-01, 1.40794635e-01,
          9.65852886e-02, 8.46595243e-02, 9.09664854e-02, 6.74607232e-02,
          1.00181550e-01, 1.19791545e-01, 1.41411945e-01, 2.65237033e-01,
          2.04417259e-01, 1.22288175e-01, 1.17936477e-01, 4.27248627e-02,
          9.61223841e-02, 7.86695182e-02, 3.49719659e-03, 1.33396789e-01,
          1.18044101e-01, 5.25783040e-02, 0., 8.81487206e-02,
          1.24098293e-01, 8.79498385e-03, 9.75632742e-02, 2.94346750e-01,
          0., 9.95203257e-02, 0., 0., 1.27266541e-01, 1.79981396e-01,
          2.40098029e-01, 2.35290974e-01, 1.86574817e-01, 9.65089872e-02,
          8.32365677e-02, 0., 1.08123608e-01, 0., 1.25588283e-01,
          1.32966936e-01, 6.68164250e-03, 0., 5.22620454e-02, 0.,
          5.88156004e-03, 3.34613919e-02, 3.86670344e-02, 2.21987113e-01,
          2.56735712e-01, 1.54402733e-01, 1.03277668e-01, 1.08224280e-01,
          7.18833581e-02, 1.16616152e-01, 1.00863561e-01, 8.46601203e-02 ]
      - [ 1.98401526e-01, 2.22622618e-01, 1.14933148e-01, 1.13717124e-01,
          9.20194536e-02, 8.62915069e-02, 8.75492319e-02, 1.08371243e-01,
          9.15554613e-02, 5.69528490e-02, 0., 1.13395855e-01,
          1.13826677e-01, 1.64740175e-01, 1.75631240e-01, 1.74354851e-01,
          2.47792333e-01, 1.04623280e-01, 4.61553708e-02, 1.00111544e-01,
          7.45761395e-02, 8.09233561e-02, 9.80011374e-02, 1.12391792e-01,
          4.28985320e-02, 1.10293277e-01, 6.55319765e-02, 7.50715844e-03,
          1.23665351e-02, 1.07937530e-02, 2.46829111e-02, 3.19014341e-01,
          9.88946259e-02, 5.02033904e-03, 5.19591197e-02, 6.06654361e-02,
          1.00521855e-01, 1.90624401e-01, 1.69249371e-01, 3.00448745e-01,
          1.33715838e-01, 3.54991597e-03, 7.92298391e-02, 6.64494112e-02,
          1.22028925e-01, 7.00157508e-02, 8.54933560e-02, 9.03161392e-02,
          9.79408622e-02, 6.14863448e-03, 1.16134793e-01, 4.49142382e-02,
          9.85138565e-02, 8.03304762e-02, 9.82226357e-02, 2.39299446e-01,
          2.43168190e-01, 1.09913297e-01, 1.66510746e-01, 8.10611621e-02,
          1.46301523e-01, 0., 5.85665628e-02, 0. ]
      - [ 2.56416678e-01, 2.08687246e-01, 1.22370541e-01, 5.42540615e-03,
          1.12273403e-01, 6.45193178e-03, 9.18247923e-02, 1.14387967e-01,
          1.47647083e-01, 1.15437424e-02, 0., 1.34348035e-01,
          1.13452755e-01, 8.99943337e-02, 1.99415058e-01, 1.76086009e-01,
          2.57787317e-01, 1.22687392e-01, 4.68902998e-02, 6.27010763e-02,
          6.22683726e-02, 5.34124598e-02, 5.30115999e-02, 1.41989037e-01,
          9.98359695e-02, 3.62818781e-03, 4.40347530e-02, 5.00197746e-02,
          7.88022280e-02, 1.33823901e-02, 3.86539884e-02, 2.91503757e-01,
          1.11492097e-01, 1.14330374e-01, 0., 5.42089753e-02,
          7.88918436e-02, 1.65192947e-01, 1.90229475e-01, 3.20462048e-01,
          1.73885867e-01, 7.63698667e-02, 0., 5.30249961e-02, 0.,
          9.78624821e-02, 6.55612722e-02, 1.39021456e-01, 9.23677459e-02,
          4.86527830e-02, 3.94977517e-02, 2.69258097e-02, 0.,
          4.57465388e-02, 2.87622940e-02, 1.87716380e-01, 3.11235666e-01,
          1.37168914e-01, 8.64429250e-02, 9.87079740e-02, 1.30650952e-01,
          0., 9.08684209e-02, 5.20054363e-02 ]
      - [ 1.77863106e-01, 2.03789741e-01, 1.71422735e-01, 1.43688947e-01,
          6.53324798e-02, 1.10760473e-01, 9.59232077e-02, 9.72640291e-02,
          1.08387703e-02, 8.69118199e-02, 5.08419871e-02, 9.13315490e-02,
          1.29491881e-01, 1.64457709e-01, 1.81137443e-01, 1.59532040e-01,
          2.86310464e-01, 1.52012810e-01, 6.65291175e-02, 1.27026573e-01,
          1.64352600e-02, 6.13293909e-02, 6.39450699e-02, 1.55615985e-01,
          3.95775959e-02, 1.11626713e-02, 7.55542889e-03, 1.09366290e-02,
          1.29621448e-02, 8.40214640e-03, 4.97717857e-02, 2.71131575e-01,
          6.68701082e-02, 0., 0., 5.30148521e-02, 1.43970177e-01,
          1.64883792e-01, 1.88178226e-01, 2.85669535e-01, 1.03733115e-01,
          4.60373312e-02, 8.68739113e-02, 1.04340412e-01, 0.,
          6.46666139e-02, 8.66519660e-02, 1.29729480e-01, 1.04933567e-01,
          9.34398025e-02, 0., 7.86872581e-03, 9.47089773e-03,
          8.27010274e-02, 1.57849863e-01, 2.73821771e-01, 2.65277714e-01,
          8.48028064e-02, 1.16759658e-01, 1.05960332e-01, 8.04280713e-02,
          9.22108889e-02, 0., 9.37161371e-02 ]
      - [ 1.49616584e-01, 1.77410007e-01, 1.15192346e-01, 1.48769766e-01,
          1.15284003e-01, 1.36323825e-01, 6.59062490e-02, 0.,
          1.21438786e-01, 1.13746189e-01, 0., 1.25354469e-01,
          1.46864250e-01, 1.27223194e-01, 1.37406811e-01, 2.37748936e-01,
          2.24005952e-01, 6.89339414e-02, 2.62043849e-02, 5.09402761e-03,
          8.67087673e-03, 0., 9.90645140e-02, 1.65384963e-01,
          1.27742127e-01, 7.27367550e-02, 0., 7.09896907e-02,
          7.69876316e-02, 9.50412378e-02, 1.05979770e-01, 2.57544637e-01,
          8.29107165e-02, 9.53401849e-02, 1.04570419e-01, 1.07155576e-01,
          1.71640128e-01, 1.56147048e-01, 1.80762187e-01, 2.59338379e-01,
          1.69320345e-01, 1.23752974e-01, 5.25462925e-02, 8.65162835e-02,
          7.66631868e-03, 1.38641492e-01, 1.15022652e-01, 1.02707580e-01,
          1.30208537e-01, 7.61734787e-03, 0., 0., 9.57056787e-03,
          8.56709946e-03, 1.74652953e-02, 1.89907819e-01, 2.54201978e-01,
          1.29158929e-01, 1.41998917e-01, 7.55195767e-02, 1.50516674e-01,
          1.13377005e-01, 7.80665502e-02, 1.18929818e-01 ]
      - [ 2.41474435e-01, 1.55179814e-01, 1.37910828e-01, 4.74882759e-02,
          1.25896987e-02, 1.22184731e-01, 1.26227781e-01, 1.00249432e-01,
          6.48014992e-02, 1.01995632e-01, 6.95631932e-03, 1.34423867e-01,
          5.92180341e-02, 1.45939440e-01, 1.42121926e-01, 2.35657409e-01,
          2.82639384e-01, 8.24023336e-02, 0., 4.46677208e-02,
          9.14263129e-02, 9.11628976e-02, 1.18625879e-01, 1.38558298e-01,
          8.24747458e-02, 9.24684294e-03, 3.35758515e-02, 6.81752339e-02,
          8.40834975e-02, 9.28268954e-02, 1.17444538e-01, 2.02728271e-01,
          1.06288299e-01, 8.13901648e-02, 8.13580155e-02, 0.,
          1.04708485e-01, 2.00651795e-01, 1.98843643e-01, 2.87249029e-01,
          1.25487894e-01, 1.26309812e-01, 0., 1.04619414e-01,
          5.30427098e-02, 0., 1.56360477e-01, 0., 1.16675183e-01, 0.,
          5.92464581e-02, 0., 3.58839110e-02, 6.09210366e-03,
          8.85238051e-02, 2.49735788e-01, 2.17392892e-01, 1.66491747e-01,
          9.43791792e-02, 1.26867026e-01, 1.06688514e-01, 9.12191197e-02,
          5.27488813e-02, 1.45971403e-01 ]
      - [ 2.47569025e-01, 2.05513358e-01, 2.07527325e-01, 1.11144856e-01,
          1.22701980e-01, 0., 7.71436542e-02, 9.66210477e-03,
          6.30524233e-02, 9.79380086e-02, 9.38174408e-03, 1.22983165e-01,
          1.62239015e-01, 1.48221597e-01, 1.65097877e-01, 1.37578398e-01,
          1.20119870e-01, 6.42805323e-02, 6.45653233e-02, 1.23757645e-01,
          7.77128860e-02, 7.57496804e-03, 1.09381840e-01, 1.22691663e-02,
          5.23038283e-02, 6.62236363e-02, 7.18921721e-02, 0.,
          1.35992080e-01, 2.14502320e-01, 1.25552788e-01, 2.62386173e-01,
          7.30651245e-02, 8.50128978e-02, 1.08893342e-01, 7.88315162e-02,
          6.84257671e-02, 1.97736517e-01, 1.90793306e-01, 2.82307744e-01,
          1.93616793e-01, 1.25227898e-01, 9.21933502e-02, 1.85544953e-01,
          1.38296977e-01, 1.24094844e-01, 0., 7.97481164e-02,
          7.68398866e-03, 0., 7.57496804e-03, 7.97531754e-02,
          5.29233180e-02, 3.87592576e-02, 7.97007754e-02, 2.18762144e-01,
          1.86705127e-01, 1.36733115e-01, 8.84150937e-02, 1.44853696e-01,
          6.37517124e-02, 0., 1.11915395e-02, 0. ]
      - [ 1.48782253e-01, 2.11487263e-01, 1.56131834e-01, 6.92152232e-02,
          1.06218532e-01, 8.91592130e-02, 7.13079199e-02, 7.87932947e-02,
          8.89108554e-02, 9.76961199e-03, 7.14170858e-02, 1.16930954e-01,
          4.12744246e-02, 9.49746072e-02, 1.44543067e-01, 2.60291606e-01,
          2.53615767e-01, 7.89031535e-02, 5.55138923e-02, 1.34634495e-01,
          1.24202631e-02, 0., 1.05495509e-02, 6.69145063e-02,
          1.52543649e-01, 7.38513237e-03, 6.50571063e-02, 7.37686008e-02,
          5.88032603e-02, 3.59657332e-02, 1.15816668e-01, 2.46860549e-01,
          1.13208435e-01, 0., 5.77360801e-02, 4.06126790e-02,
          1.41669586e-01, 1.80933669e-01, 2.40418598e-01, 2.73843408e-01,
          1.13806173e-01, 1.00330375e-01, 6.77344203e-02, 8.05132613e-02,
          4.39122599e-03, 3.95345800e-02, 1.21193998e-01, 1.07149661e-01,
          1.09882317e-01, 7.55390525e-02, 8.92911628e-02, 0.,
          1.12380302e-02, 1.05131648e-01, 2.77395286e-02, 2.66712219e-01,
          2.64044046e-01, 1.34996623e-01, 7.69825727e-02, 1.52279869e-01,
          1.19339429e-01, 8.96806940e-02, 5.22207748e-03, 1.58920407e-01 ]
      - [ 2.64413297e-01, 1.93398416e-01, 1.62438095e-01, 1.23503312e-01,
          7.73211643e-02, 9.84412506e-02, 4.84905997e-03, 0.,
          1.50570795e-01, 1.28678441e-01, 8.23469087e-02, 1.29081652e-01,
          1.01125948e-01, 1.07976317e-01, 1.90793395e-01, 1.69121549e-01,
          1.95990816e-01, 7.17014149e-02, 6.96233287e-03, 8.28722585e-03,
          3.76579836e-02, 0., 7.57106170e-02, 9.77711156e-02,
          1.18362002e-01, 1.09891623e-01, 6.82849512e-02, 1.05027504e-01,
          1.66495275e-02, 1.10221185e-01, 1.75589368e-01, 2.83900559e-01,
          1.00898422e-01, 0., 9.23720598e-02, 8.22111666e-02,
          1.23000234e-01, 2.13719666e-01, 2.05578297e-01, 2.34025240e-01,
          2.24597752e-01, 8.90996829e-02, 9.89700481e-02, 0., 0.,
          1.29224360e-01, 1.02946661e-01, 1.07441425e-01, 1.19225914e-02,
          9.25148651e-03, 1.39373979e-02, 9.46236216e-03, 1.16494587e-02,
          0., 5.80699444e-02, 1.42888993e-01, 2.23259494e-01,
          1.92726612e-01, 1.45624354e-01, 1.14834741e-01, 1.53131768e-01,
          1.00244526e-02, 5.93886152e-03, 6.51071081e-03 ]
      - [ 2.45094031e-01, 1.91240832e-01, 1.33600563e-01, 9.44106206e-02,
          6.76553994e-02, 1.14618894e-02, 6.82133660e-02, 8.55826735e-02,
          1.21151663e-01, 8.42920970e-03, 3.86266559e-02, 1.19300306e-01,
          1.14005648e-01, 1.08041905e-01, 1.41135588e-01, 2.35757560e-01,
          2.29667574e-01, 1.52938113e-01, 1.53142475e-02, 8.42920877e-03,
          7.97338560e-02, 6.70350343e-03, 4.93304431e-02, 3.66069786e-02,
          2.39401683e-02, 6.09616823e-02, 0., 7.10997134e-02,
          1.02943905e-01, 9.13092196e-02, 8.90356973e-02, 2.84767181e-01,
          1.09818324e-01, 1.12028800e-01, 0., 0., 1.39590353e-01,
          1.72052249e-01, 2.48304740e-01, 2.94999003e-01, 1.95084274e-01,
          3.39428075e-02, 8.70810151e-02, 6.76564649e-02, 1.11299060e-01,
          9.42395180e-02, 9.60075259e-02, 9.89218280e-02, 6.72221631e-02,
          8.42920877e-03, 0., 0., 7.20219687e-03, 3.36449854e-02,
          7.14950264e-02, 1.86595023e-01, 3.17793071e-01, 1.40305489e-01,
          1.05511717e-01, 1.24402009e-01, 8.98329765e-02, 1.00949965e-01,
          6.52923714e-03, 5.63695189e-03 ]
      - [ 2.15936109e-01, 2.50061095e-01, 1.24702930e-01, 9.98565704e-02,
          1.36283606e-01, 0., 7.64428377e-02, 9.91557837e-02,
          9.40175876e-02, 4.23292443e-02, 9.56472233e-02, 1.41683385e-01,
          8.08253065e-02, 1.37484461e-01, 1.89073220e-01, 1.90042406e-01,
          2.48044953e-01, 7.43468478e-02, 5.80927320e-02, 6.89382926e-02,
          1.04678562e-02, 7.95024633e-02, 7.86080807e-02, 9.39169526e-02,
          2.70378478e-02, 8.33151210e-03, 0., 4.97246981e-02,
          2.25332156e-01, 1.36545852e-01, 9.96658206e-02, 2.30241999e-01,
          6.86410442e-02, 5.26931137e-03, 1.27585977e-01, 1.06019162e-01,
          1.07954226e-01, 1.92527041e-01, 1.98882937e-01, 2.88572192e-01,
          1.46140784e-01, 7.64041245e-02, 9.33127701e-02, 8.12864006e-02,
          1.42439321e-01, 0., 0., 6.55593500e-02, 0., 3.72596574e-03,
          8.64646025e-03, 0., 1.58984289e-02, 0., 6.34175241e-02,
          2.15441257e-01, 2.11778402e-01, 1.58508569e-01, 1.77112341e-01,
          1.38374478e-01, 1.39480501e-01, 0., 6.45356160e-03, 0. ]
      - [ 2.52838820e-01, 1.78661823e-01, 9.81081873e-02, 7.14312270e-02,
          1.27033904e-01, 6.39197789e-03, 1.23442620e-01, 6.81587234e-02,
          1.39232248e-01, 8.35183188e-02, 1.19072318e-01, 9.23139974e-02,
          1.07336931e-01, 1.18933238e-01, 1.68992206e-01, 2.09414408e-01,
          2.54701674e-01, 7.28422627e-02, 4.98689823e-02, 8.84959847e-02,
          1.35173872e-02, 5.95679358e-02, 8.03748611e-03, 1.22368842e-01,
          1.20509736e-01, 4.62635756e-02, 7.45165721e-02, 1.92453898e-02,
          1.70982927e-02, 7.85046220e-02, 1.53676674e-01, 2.81836748e-01,
          4.14276868e-02, 9.23064575e-02, 0., 0., 1.26661256e-01,
          1.76568642e-01, 2.74156243e-01, 1.67737946e-01, 2.08769098e-01,
          0., 1.39382884e-01, 0., 8.40187892e-02, 8.61590505e-02,
          8.49925354e-02, 1.46049604e-01, 4.27457318e-03, 0., 0.,
          8.27145204e-02, 8.82132947e-02, 6.89847320e-02, 1.06323473e-01,
          2.12558329e-01, 2.32242078e-01, 1.22619323e-01, 1.58177778e-01,
          1.30665347e-01, 1.45196289e-01, 0., 0., 5.37499133e-03 ]
      - [ 2.05211475e-01, 2.27763444e-01, 1.49572432e-01, 5.95994927e-02,
          1.28029451e-01, 2.46544238e-02, 7.54102692e-02, 4.82340017e-03,
          1.45402193e-01, 9.60498527e-02, 1.17708080e-01, 7.92785585e-02,
          1.00443862e-01, 1.17762834e-01, 1.78998947e-01, 2.01999307e-01,
          1.77012160e-01, 4.15733047e-02, 2.29441263e-02, 0.,
          1.19213723e-02, 2.32126899e-02, 5.18842749e-02, 1.46618694e-01,
          1.37010321e-01, 7.14646503e-02, 6.99311271e-02, 5.37633710e-02,
          5.31060733e-02, 9.11895037e-02, 1.33859873e-01, 2.86854684e-01,
          8.84395391e-02, 7.21266493e-03, 7.57947862e-02, 1.05278194e-01,
          1.87346652e-01, 1.78948402e-01, 1.97574884e-01, 2.08349422e-01,
          2.40164429e-01, 9.49436575e-02, 8.04081038e-02, 1.01736329e-01,
          5.80967627e-02, 8.25211033e-02, 1.08316079e-01, 1.34654060e-01,
          1.14297211e-01, 5.58690634e-03, 0., 4.82340017e-03,
          6.64398912e-03, 0., 5.57659082e-02, 2.05604181e-01,
          2.31653422e-01, 1.20050870e-01, 1.46062329e-01, 1.10662080e-01,
          1.46532744e-01, 7.02594444e-02, 9.15782824e-02, 1.25654444e-01 ]
      - [ 2.75264233e-01, 8.31082538e-02, 1.50703758e-01, 5.78221530e-02,
          1.46790326e-01, 1.12502329e-01, 1.71323210e-01, 1.21508911e-01,
          1.57094195e-01, 1.63020059e-01, 9.58267078e-02, 1.18944734e-01,
          1.23955645e-01, 1.10071026e-01, 1.57797486e-01, 2.78353453e-01,
          1.73626408e-01, 1.52956201e-02, 8.38395804e-02, 8.04096535e-02,
          6.43101614e-03, 5.40053695e-02, 0., 1.42572567e-01,
          1.71241388e-01, 8.47693980e-02, 4.67746891e-02, 9.16860774e-02,
          1.52583554e-01, 1.79889709e-01, 1.63567349e-01, 2.17204407e-01,
          1.44693300e-01, 8.23243484e-02, 0., 7.17781112e-02,
          1.28261417e-01, 1.87355459e-01, 1.12140834e-01, 3.02042305e-01,
          1.17017806e-01, 1.18347667e-01, 0., 7.96407759e-02,
          5.75207584e-02, 1.43886849e-01, 1.17518805e-01, 0.,
          1.20313298e-02, 9.36661661e-03, 0., 1.14361439e-02,
          1.21430876e-02, 0., 1.04086094e-01, 1.21645384e-01,
          1.37590125e-01, 1.36453629e-01, 1.18471265e-01, 1.24166392e-01,
          1.06618971e-01, 0., 5.40781859e-03, 5.71807195e-03 ]
      - [ 2.62658179e-01, 2.08649322e-01, 1.07281610e-01, 9.42982826e-03,
          1.01818323e-01, 0., 5.52266976e-03, 4.39953059e-02,
          1.44781426e-01, 7.74290934e-02, 9.39617231e-02, 1.06181547e-01,
          1.16718061e-01, 1.22233979e-01, 1.28188208e-01, 2.23896742e-01,
          2.34527320e-01, 2.12621734e-01, 1.06024049e-01, 4.35706191e-02,
          1.27867097e-02, 0., 9.69253480e-02, 7.35801905e-02,
          9.77961645e-02, 9.35353413e-02, 4.21846658e-02, 1.10988403e-02,
          1.18164957e-01, 1.01377681e-01, 1.12707466e-01, 2.34254226e-01,
          9.23545510e-02, 1.31263182e-01, 8.33038241e-02, 0.,
          5.83951222e-03, 1.81135356e-01, 2.12858066e-01, 3.39000553e-01,
          1.34072915e-01, 6.97736442e-02, 0., 1.12453051e-01,
          5.28719500e-02, 1.14366993e-01, 8.17979276e-02, 0.,
          3.65692526e-02, 6.76386105e-03, 0., 8.25831760e-03,
          1.09400395e-02, 6.95399046e-02, 4.89201024e-02, 2.47083336e-01,
          2.36993000e-01, 8.47533643e-02, 1.65479794e-01, 1.24878146e-01,
          1.32782221e-01, 0., 5.80049455e-02, 0. ]
      - [ 1.81731254e-01, 2.49830350e-01, 9.45418105e-02, 1.42461479e-01,
          6.68426901e-02, 1.31085455e-01, 1.15712680e-01, 1.59322485e-01,
          1.12260245e-01, 1.24525160e-01, 7.79377744e-02, 1.57485068e-01,
          9.85874012e-02, 1.52663872e-01, 1.62579000e-01, 1.88291103e-01,
          2.75346518e-01, 3.53505574e-02, 1.02888338e-01, 1.14753127e-01,
          4.97951321e-02, 0., 7.57678524e-02, 1.51691452e-01,
          1.12283848e-01, 5.13968095e-02, 2.16278266e-02, 0.,
          5.46151698e-02, 3.72569598e-02, 9.75708291e-02, 2.69807070e-01,
          4.09193523e-03, 0., 0., 0., 1.73234224e-01, 1.44127563e-01,
          9.97700915e-02, 2.89415389e-01, 5.23353741e-02, 6.32771552e-02,
          0., 1.19246237e-01, 7.66557679e-02, 1.00231543e-01,
          4.86615812e-03, 1.49527997e-01, 7.08743930e-03, 8.32158625e-02,
          1.09830633e-01, 8.53062719e-02, 8.36915076e-02, 9.00078192e-02,
          9.41068828e-02, 2.69253761e-01, 1.56027004e-01, 1.33720905e-01,
          1.50186107e-01, 1.87254310e-01, 4.09193523e-03, 0.,
          5.95980231e-03, 9.77945700e-03 ]
      - [ 2.55332291e-01, 1.68170199e-01, 1.06142581e-01, 1.06545433e-01,
          8.21339488e-02, 9.02376994e-02, 1.03971355e-01, 1.15376443e-01,
          1.11265756e-01, 7.10649742e-03, 1.31398156e-01, 8.94539654e-02,
          1.33961886e-01, 1.12765037e-01, 1.46185935e-01, 2.27181122e-01,
          2.71159708e-01, 1.10512011e-01, 0., 8.31727609e-02,
          7.94351771e-02, 0., 6.22362457e-03, 1.27348363e-01,
          1.04351006e-01, 1.39278591e-01, 7.90290441e-03, 6.64552394e-03,
          7.61179700e-02, 8.80153384e-03, 1.83405548e-01, 2.48179317e-01,
          9.07857418e-02, 8.99103358e-02, 5.71090505e-02, 1.18061714e-01,
          1.03808187e-01, 1.54284924e-01, 2.46792391e-01, 2.68250942e-01,
          1.32379159e-01, 3.49980127e-03, 1.08470306e-01, 8.42013061e-02,
          8.56138244e-02, 1.08643897e-01, 0., 9.57952291e-02,
          7.20877573e-03, 5.60165383e-02, 0., 5.87235726e-02,
          1.10115865e-02, 5.91324158e-02, 2.30095722e-02, 2.24794865e-01,
          2.09501371e-01, 1.71763718e-01, 1.32270470e-01, 1.74629509e-01,
          9.14845318e-02, 6.22362457e-03, 6.99960254e-03, 0. ]
      - [ 2.08559826e-01, 2.21468225e-01, 1.19379312e-01, 1.07346572e-01,
          7.99907818e-02, 1.16306730e-01, 8.04593861e-02, 0.,
          1.40839100e-01, 4.88944612e-02, 1.00132972e-01, 1.26640916e-01,
          1.28994528e-02, 1.15319028e-01, 1.29856989e-01, 2.29315415e-01,
          2.28499323e-01, 7.89966956e-02, 4.75123115e-02, 8.05961341e-03,
          3.96556500e-03, 7.34456331e-02, 3.21346670e-02, 1.67844474e-01,
          1.14102565e-01, 6.63068295e-02, 9.47067514e-02, 9.66585949e-02,
          1.41132800e-02, 0., 1.08031981e-01, 3.41316283e-01,
          1.07826985e-01, 0., 8.94836113e-02, 5.38191870e-02,
          9.69236568e-02, 1.88642725e-01, 2.88003057e-01, 1.34787574e-01,
          2.06636846e-01, 4.30897810e-02, 9.24323425e-02, 0.,
          1.10734321e-01, 2.84964312e-02, 7.46718720e-02, 8.70679840e-02,
          6.27969131e-02, 2.67126299e-02, 4.68158126e-02, 5.51030636e-02,
          2.56211311e-02, 4.35551479e-02, 5.55011332e-02, 2.79507667e-01,
          2.09785387e-01, 1.34326771e-01, 6.36499524e-02, 1.43746555e-01,
          1.15464307e-01, 1.38413623e-01, 4.71587805e-03, 6.09376617e-02 ]
      - [ 2.08559826e-01, 2.21468225e-01, 1.19379312e-01, 1.07346572e-01,
          7.99907818e-02, 1.16306730e-01, 8.04593861e-02, 0.,
          1.40839100e-01, 4.88944612e-02, 1.00132972e-01, 1.26640931e-01,
          1.28994528e-02, 1.15319028e-01, 1.29857004e-01, 2.29315415e-01,
          2.28499323e-01, 7.89966956e-02, 4.75123115e-02, 8.05961341e-03,
          3.96556500e-03, 7.34456331e-02, 3.21346670e-02, 1.67844474e-01,
          1.14102565e-01, 6.63068295e-02, 9.47067514e-02, 9.66585949e-02,
          1.41132800e-02, 0., 1.08031973e-01, 3.41316283e-01,
          1.07826978e-01, 0., 8.94836113e-02, 5.38191870e-02,
          9.69236568e-02, 1.88642740e-01, 2.88003057e-01, 1.34787574e-01,
          2.06636846e-01, 4.30897810e-02, 9.24323499e-02, 0.,
          1.10734321e-01, 2.84964312e-02, 7.46718720e-02, 8.70679840e-02,
          6.27969131e-02, 2.67126299e-02, 4.68158126e-02, 5.51030636e-02,
          2.56211311e-02, 4.35551479e-02, 5.55011332e-02, 2.79507667e-01,
          2.09785387e-01, 1.34326771e-01, 6.36499450e-02, 1.43746555e-01,
          1.15464307e-01, 1.38413623e-01, 4.71587805e-03, 6.09376617e-02 ]
      - [ 1.40089512e-01, 1.95439160e-01, 1.57461628e-01, 1.23145163e-01,
          1.12950444e-01, 1.04517572e-01, 0., 1.02356933e-01,
          5.54854497e-02, 7.54288360e-02, 1.03707932e-01, 1.07969888e-01,
          1.30314425e-01, 1.29764199e-01, 1.75208315e-01, 2.45592296e-01,
          2.34339759e-01, 9.37564000e-02, 5.14020808e-02, 4.25988846e-02,
          7.30151013e-02, 5.36734872e-02, 7.43744224e-02, 5.81216998e-02,
          1.44227520e-01, 5.98490573e-02, 7.40742451e-03, 5.90508170e-02,
          1.30146882e-02, 3.87024321e-02, 6.58375472e-02, 3.16878498e-01,
          6.16400577e-02, 7.29600294e-03, 1.24048136e-01, 6.90961555e-02,
          1.53445333e-01, 1.79791421e-01, 1.75720662e-01, 3.29778194e-01,
          9.63808745e-02, 1.05823994e-01, 4.20850702e-02, 0.,
          1.16626263e-01, 0., 1.40836939e-01, 8.72518346e-02,
          8.90096799e-02, 0., 0., 5.04815951e-02, 0., 2.05783397e-02,
          6.05381019e-02, 2.20799297e-01, 2.71121293e-01, 1.57303661e-01,
          1.19519636e-01, 4.89195883e-02, 1.22434586e-01, 1.27876297e-01,
          3.64800147e-03, 0. ]
      - [ 2.13931710e-01, 1.98018059e-01, 7.13494271e-02, 1.25967324e-01,
          1.45687060e-02, 1.53920412e-01, 1.41887888e-01, 1.65725201e-01,
          1.46357268e-01, 1.26052886e-01, 8.99307132e-02, 9.88223478e-02,
          9.97960642e-02, 1.16886869e-01, 1.65204033e-01, 2.22442329e-01,
          3.00750703e-01, 6.27147257e-02, 8.21981728e-02, 5.28829126e-03,
          5.94764948e-03, 6.28887350e-03, 1.16218142e-01, 1.93443209e-01,
          1.71761736e-01, 7.07298703e-03, 6.28887350e-03, 1.02058969e-01,
          5.94764948e-03, 8.82910192e-02, 8.22426155e-02, 2.94430673e-01,
          3.12133394e-02, 1.14238016e-01, 0., 0., 6.37834221e-02,
          1.28491402e-01, 2.21528485e-01, 2.04789937e-01, 1.18791655e-01,
          8.03572610e-02, 7.98575860e-03, 9.06001776e-02, 0., 0.,
          7.43213892e-02, 1.68152079e-01, 1.05485670e-01, 0.,
          7.18100276e-03, 5.28829126e-03, 9.93554667e-03, 8.89381021e-03,
          2.78827958e-02, 2.78366655e-01, 2.13455379e-01, 8.22002143e-02,
          1.10580772e-01, 9.06831771e-02, 7.92473629e-02, 1.28168717e-01,
          1.13634067e-02, 5.28829126e-03 ]
      - [ 1.96088493e-01, 1.72322497e-01, 1.66754246e-01, 1.65652603e-01,
          7.52286911e-02, 0., 8.10672119e-02, 4.28392366e-02,
          1.07553877e-01, 7.95747042e-02, 9.59822237e-02, 7.76149258e-02,
          1.23634383e-01, 1.35668054e-01, 1.62190989e-01, 1.75209954e-01,
          1.56518832e-01, 1.23404907e-02, 0., 9.16857794e-02,
          1.50525738e-02, 7.34733269e-02, 4.76249568e-02, 8.92735180e-03,
          8.52006301e-02, 6.39759377e-03, 7.50012090e-03, 9.26411226e-02,
          1.27730563e-01, 1.55818954e-01, 8.33078623e-02, 2.70229608e-01,
          6.26373887e-02, 9.28535089e-02, 1.11681066e-01, 1.59415737e-01,
          1.32847980e-01, 2.34929457e-01, 2.01680943e-01, 1.57448679e-01,
          2.57952720e-01, 1.51832953e-01, 0., 9.37611610e-02,
          3.78237627e-02, 1.21625848e-01, 1.53770477e-01, 7.66244605e-02,
          6.21195845e-02, 1.11395709e-01, 1.12168659e-02, 0.,
          5.52329887e-03, 7.50012090e-03, 3.65209617e-02, 2.32598409e-01,
          2.28225589e-01, 1.62121072e-01, 1.25809342e-01, 1.44627184e-01,
          1.23957731e-01, 1.39625460e-01, 3.69365257e-03, 8.00841823e-02 ]
      - [ 2.35410586e-01, 1.81282699e-01, 1.49832770e-01, 6.46984652e-02,
          1.22874960e-01, 0., 8.43701977e-03, 3.45597006e-02,
          1.42780438e-01, 4.49200720e-02, 7.91777372e-02, 1.39767021e-01,
          1.02906637e-01, 1.22375481e-01, 1.95971087e-01, 2.01714069e-01,
          2.74481267e-01, 1.49627849e-01, 1.58268046e-02, 1.37662850e-02,
          7.89867491e-02, 6.62860926e-03, 6.57882765e-02, 8.48901719e-02,
          5.42256832e-02, 7.01568872e-02, 5.75640835e-02, 9.09904242e-02,
          6.53156415e-02, 6.11555651e-02, 1.29740223e-01, 2.59046227e-01,
          0., 9.09885690e-02, 9.44347754e-02, 9.01408494e-02,
          1.59270644e-01, 1.61661088e-01, 1.52817979e-01, 2.74536431e-01,
          2.24418849e-01, 6.77056834e-02, 8.32911059e-02, 9.88329947e-02,
          6.67624995e-02, 1.10376991e-01, 7.38357380e-02, 8.10660273e-02,
          8.86563677e-03, 0., 5.71989454e-02, 6.92964420e-02,
          1.49173094e-02, 6.03973567e-02, 2.32955199e-02, 2.56108135e-01,
          2.45132819e-01, 1.49253145e-01, 1.14871562e-01, 1.45940527e-01,
          1.32558227e-01, 0., 3.72754084e-03, 0. ]
      - [ 2.13116661e-01, 1.92461938e-01, 1.53973281e-01, 1.27534255e-01,
          5.16462363e-02, 1.64581180e-01, 5.55579513e-02, 6.32980987e-02,
          6.69489130e-02, 5.71950749e-02, 9.60274134e-03, 8.47100019e-02,
          6.86778426e-02, 4.15574796e-02, 1.76094368e-01, 2.58346289e-01,
          2.30731890e-01, 4.73299511e-02, 7.43959770e-02, 2.72503309e-02,
          5.93999438e-02, 8.03363975e-03, 5.03134448e-03, 6.74916133e-02,
          7.89324343e-02, 9.52126458e-03, 8.94713588e-03, 5.60991690e-02,
          1.80723622e-01, 1.44566074e-01, 1.49974242e-01, 2.63171554e-01,
          9.32099968e-02, 0., 1.12694316e-01, 0., 9.58092883e-02,
          1.97160184e-01, 2.62471020e-01, 2.78199404e-01, 1.26946226e-01,
          8.06198642e-02, 6.15018196e-02, 9.86270756e-02, 7.21735731e-02,
          1.10043041e-01, 0., 9.94263496e-03, 9.46044456e-03, 0.,
          3.84280719e-02, 5.91900758e-02, 6.25735223e-02, 4.79106754e-02,
          1.47386091e-02, 2.17458129e-01, 2.36923456e-01, 1.75306886e-01,
          1.73360363e-01, 2.27305099e-01, 5.98331029e-03, 0.,
          6.16211304e-03, 0. ]
      - [ 2.66824543e-01, 1.93250477e-01, 1.60575792e-01, 9.50420722e-02,
          9.28825736e-02, 1.41400352e-01, 7.84744397e-02, 9.06244069e-02,
          1.72666326e-01, 8.52641016e-02, 1.27735794e-01, 8.48343968e-02,
          1.55041978e-01, 8.77856985e-02, 1.60574287e-01, 1.85206577e-01,
          2.47492597e-01, 1.23416521e-01, 5.50138280e-02, 7.65793324e-02,
          1.54524324e-02, 1.07231271e-02, 9.84854624e-02, 5.57878800e-03,
          1.34740517e-01, 1.02893583e-01, 6.85726404e-02, 8.65417495e-02,
          1.32140309e-01, 1.05752282e-01, 1.49996012e-01, 2.53641397e-01,
          8.57604519e-02, 9.31943581e-02, 0., 8.12389478e-02,
          1.45557582e-01, 2.11162880e-01, 1.69101641e-01, 2.67420113e-01,
          1.22535042e-01, 9.13845934e-03, 5.94875403e-02, 0.,
          1.21159174e-01, 9.59694684e-02, 0., 8.19299594e-02,
          1.22158043e-02, 6.63433410e-03, 0., 5.57878800e-03,
          1.13542704e-02, 0., 1.06586702e-02, 1.60175711e-01,
          2.79970914e-01, 1.50320560e-01, 1.26941815e-01, 9.46469605e-02,
          1.39100775e-01, 0., 0., 7.88959768e-03 ]
      - [ 3.23933303e-01, 1.73897341e-01, 1.04698583e-01, 1.75387576e-01,
          1.11803584e-01, 0., 1.06631473e-01, 1.25618801e-01,
          1.32219372e-02, 1.42699778e-01, 1.35853812e-01, 5.54190204e-03,
          1.31144196e-01, 7.52538210e-03, 8.52952078e-02, 1.21401727e-01,
          3.16495419e-01, 7.01701120e-02, 1.29337966e-01, 0.,
          1.25915594e-02, 9.17570591e-02, 7.33736604e-02, 8.95742048e-03,
          1.92015097e-01, 1.74909920e-01, 1.43356800e-01, 1.71144024e-01,
          1.31617159e-01, 6.59046927e-03, 6.91136047e-02, 9.72950608e-02,
          6.92531317e-02, 6.41914178e-03, 7.52538210e-03, 5.54190204e-03,
          1.51170418e-01, 1.13841414e-01, 9.53908786e-02, 8.21618885e-02,
          2.95092851e-01, 1.49917707e-01, 0., 1.16325524e-02,
          7.63368886e-03, 6.99402168e-02, 8.89378414e-02, 0.,
          2.25595668e-01, 2.05869272e-01, 7.63239786e-02, 0.,
          5.82485422e-02, 5.62263913e-02, 4.07732874e-02, 1.58717424e-01,
          2.84594774e-01, 1.30688414e-01, 1.03164449e-01, 0.,
          4.40731226e-03, 0., 0., 0. ]
      - [ 2.20570490e-01, 1.24172084e-01, 1.58117160e-01, 9.05748904e-02,
          1.07813522e-01, 7.96346664e-02, 1.50088668e-01, 1.69451684e-01,
          1.41456977e-01, 8.50528181e-02, 1.50390670e-01, 1.49043888e-01,
          9.52682421e-02, 1.51349679e-01, 1.54869869e-01, 2.29027361e-01,
          2.51264095e-01, 1.13740571e-01, 6.87112734e-02, 6.77550957e-02,
          6.97997659e-02, 9.02249813e-02, 5.48854508e-02, 1.75678521e-01,
          1.35939166e-01, 5.85898943e-02, 9.02295560e-02, 3.70399505e-02,
          7.04215020e-02, 6.21442609e-02, 5.52501753e-02, 2.93044031e-01,
          9.27461088e-02, 6.45112107e-03, 0., 8.14533010e-02,
          1.27541035e-01, 1.82788715e-01, 1.32791087e-01, 1.99139193e-01,
          2.04323739e-01, 1.20027643e-02, 0., 0., 9.48551744e-02,
          1.17550693e-01, 9.34830979e-02, 1.50103539e-01, 6.26393221e-03,
          5.26731834e-03, 9.52808186e-02, 0., 7.15685412e-02,
          9.89926383e-02, 1.28752515e-01, 1.62090957e-01, 2.14515865e-01,
          9.14028734e-02, 1.41490802e-01, 1.39016047e-01, 9.89978239e-02,
          0., 5.40239252e-02, 0. ]
      - [ 1.90713584e-01, 2.14228511e-01, 1.56152695e-01, 1.76881120e-01,
          1.08731082e-02, 1.30217761e-01, 1.54256269e-01, 1.69034287e-01,
          1.74800560e-01, 1.52441591e-01, 1.01841912e-01, 0.,
          1.62730277e-01, 1.29771933e-01, 1.75616473e-01, 1.98713839e-01,
          2.04367176e-01, 1.11722574e-01, 8.37162510e-02, 8.46504122e-02,
          6.61306605e-02, 9.26386565e-02, 8.92520845e-02, 1.61413848e-01,
          2.04121456e-01, 1.01623632e-01, 1.05525889e-01, 5.58165647e-03,
          4.54226360e-02, 4.81161438e-02, 1.30636156e-01, 3.10854942e-01,
          7.68844876e-03, 1.13310687e-01, 0., 7.27047771e-02,
          1.11273646e-01, 7.19230175e-02, 1.61262110e-01, 2.40137786e-01,
          1.27112910e-01, 7.61528453e-03, 5.75376302e-02, 0.,
          6.73187226e-02, 0., 2.85029840e-02, 1.53948680e-01,
          4.43892786e-03, 5.27880481e-03, 9.64150876e-02, 1.06087476e-02,
          9.64625999e-02, 7.57936481e-03, 7.51015246e-02, 1.80534586e-01,
          1.70579016e-01, 9.98021215e-02, 1.26463786e-01, 1.28188118e-01,
          1.23408377e-01, 7.99991861e-02, 5.27880481e-03, 0. ]
      - [ 1.71182141e-01, 2.12357774e-01, 1.56788856e-01, 1.50930032e-01,
          1.36586890e-01, 1.02904581e-01, 7.22972974e-02, 1.09091319e-01,
          1.16545223e-01, 1.27332255e-01, 6.55461326e-02, 8.21862519e-02,
          1.19535252e-01, 1.75997302e-01, 2.17432603e-01, 1.81521043e-01,
          2.28024557e-01, 1.44890904e-01, 9.30831432e-02, 6.10575527e-02,
          1.37944426e-02, 8.14582407e-02, 1.01119958e-01, 0.,
          1.54232323e-01, 1.03762075e-01, 6.16715960e-02, 0.,
          1.10910445e-01, 2.84499265e-02, 1.81713596e-01, 2.69822896e-01,
          0., 1.00447260e-01, 1.11675218e-01, 9.67908576e-02,
          8.29585195e-02, 1.23277798e-01, 1.80714622e-01, 2.93214291e-01,
          9.35521051e-02, 1.43764138e-01, 0., 4.65290956e-02,
          5.56595344e-03, 6.38190955e-02, 0., 1.15391865e-01,
          1.08425198e-02, 1.18123097e-02, 5.05882129e-02, 0.,
          7.66681880e-03, 5.94797283e-02, 2.45606843e-02, 1.66815877e-01,
          2.56255060e-01, 1.62252769e-01, 1.57174289e-01, 1.74732715e-01,
          0., 1.06886858e-02, 4.40502092e-02, 5.56595344e-03 ]
      - [ 1.90713584e-01, 2.14228511e-01, 1.56152695e-01, 1.76881120e-01,
          1.08731082e-02, 1.30217761e-01, 1.54256269e-01, 1.69034287e-01,
          1.74800560e-01, 1.52441591e-01, 1.01841912e-01, 0.,
          1.62730277e-01, 1.29771933e-01, 1.75616473e-01, 1.98713824e-01,
          2.04367161e-01, 1.11722574e-01, 8.37162510e-02, 8.46504122e-02,
          6.61306605e-02, 9.26386565e-02, 8.92520845e-02, 1.61413848e-01,
          2.04121470e-01, 1.01623632e-01, 1.05525889e-01, 5.58165647e-03,
          4.54226360e-02, 4.81161438e-02, 1.30636156e-01, 3.10854942e-01,
          7.68844876e-03, 1.13310687e-01, 0., 7.27047771e-02,
          1.11273654e-01, 7.19230175e-02, 1.61262110e-01, 2.40137786e-01,
          1.27112910e-01, 7.61528453e-03, 5.75376302e-02, 0.,
          6.73187226e-02, 0., 2.85029840e-02, 1.53948680e-01,
          4.43892786e-03, 5.27880481e-03, 9.64150876e-02, 1.06087476e-02,
          9.64625999e-02, 7.57936481e-03, 7.51015246e-02, 1.80534586e-01,
          1.70579016e-01, 9.98021215e-02, 1.26463786e-01, 1.28188118e-01,
          1.23408377e-01, 7.99991861e-02, 5.27880481e-03, 0. ]
      - [ 3.34562689e-01, 1.76844507e-01, 9.03781429e-02, 1.64469212e-01,
          1.76253423e-01, 7.98634961e-02, 1.18512206e-01, 9.95798483e-02,
          1.74614996e-01, 9.80195925e-02, 8.88744816e-02, 1.30007982e-01,
          5.25404662e-02, 9.73922014e-02, 1.27309054e-01, 1.67591274e-01,
          3.09836358e-01, 1.58988789e-01, 9.19159278e-02, 8.56081583e-03,
          1.00793779e-01, 8.90026614e-02, 6.57650530e-02, 0.,
          2.83511639e-01, 1.33517319e-02, 1.36267081e-01, 1.36469230e-01,
          2.05307171e-01, 5.81313670e-02, 9.52354595e-02, 1.33882329e-01,
          1.37574663e-02, 6.80816639e-03, 1.29313599e-02, 0.,
          8.56081583e-03, 8.78014490e-02, 1.27123222e-01, 2.11366013e-01,
          2.32371345e-01, 2.37931479e-02, 6.80816639e-03, 9.25330259e-03,
          1.17674144e-02, 0., 1.04042375e-02, 5.72496280e-03,
          7.72018135e-02, 1.20042242e-01, 5.72581701e-02, 7.84854069e-02,
          8.14312771e-02, 8.53730515e-02, 5.99645376e-02, 8.22777599e-02,
          2.35925794e-01, 1.27549902e-01, 1.41106308e-01, 1.17674144e-02,
          9.10579041e-03, 2.13384070e-02, 1.06784940e-01, 1.19347744e-01 ]
      - [ 2.15843111e-01, 1.61940962e-01, 1.41496912e-01, 1.52510658e-01,
          1.42569646e-01, 1.45292744e-01, 7.29903951e-02, 9.50896218e-02,
          1.59679696e-01, 7.88753107e-02, 1.62887156e-01, 1.09637052e-01,
          1.17698103e-01, 1.99242651e-01, 1.15174174e-01, 1.45728707e-01,
          2.57124722e-01, 1.23107493e-01, 0., 5.47796395e-03,
          7.39767477e-02, 9.15294737e-02, 1.32407799e-01, 1.12922095e-01,
          1.35769069e-01, 1.16926797e-01, 8.08083192e-02, 8.73437524e-02,
          6.75223097e-02, 7.43856048e-03, 1.16623327e-01, 2.79302806e-01,
          1.07849941e-01, 0., 1.29666716e-01, 8.89697075e-02,
          1.85015306e-01, 1.23282537e-01, 9.95344520e-02, 2.72018015e-01,
          1.01203986e-01, 1.34640755e-02, 6.14256002e-02, 0.,
          1.25247061e-01, 1.21403098e-01, 1.04068190e-01, 0.,
          6.16097124e-03, 7.32667092e-03, 9.34922323e-02, 5.47796395e-03,
          7.25255460e-02, 8.27218033e-03, 3.04979850e-02, 2.17983335e-01,
          2.06593052e-01, 8.22477788e-02, 1.16379462e-01, 1.27050281e-01,
          1.86779141e-01, 0., 7.47381244e-03, 0. ]
      - [ 1.89566344e-01, 1.31243348e-01, 1.01050399e-01, 1.43192098e-01,
          9.73008350e-02, 9.79412198e-02, 8.59043375e-02, 0.,
          1.28276959e-01, 8.38211551e-03, 0., 8.60123038e-02,
          1.71394795e-01, 1.77001536e-01, 1.04951672e-01, 2.21229240e-01,
          2.24674001e-01, 1.14341140e-01, 1.14784189e-01, 6.56386986e-02,
          5.04521094e-02, 4.38434258e-02, 7.33921155e-02, 8.42630863e-02,
          1.18931077e-01, 6.49275864e-03, 4.47050817e-02, 1.12109166e-02,
          4.70259748e-02, 9.42721963e-03, 1.11523777e-01, 2.61387825e-01,
          7.93906078e-02, 1.32211357e-01, 8.84826556e-02, 1.15606144e-01,
          1.76369220e-01, 1.55894056e-01, 1.60232380e-01, 3.14589888e-01,
          1.05130054e-01, 1.23535544e-01, 1.07771724e-01, 0.,
          1.39622420e-01, 1.42583460e-01, 8.70571733e-02, 0.,
          9.89319459e-02, 0., 1.09545872e-01, 0., 9.02268365e-02,
          6.84079230e-02, 2.55338717e-02, 2.30757222e-01, 2.48716339e-01,
          1.23751283e-01, 1.34702727e-01, 1.41293466e-01, 1.73719138e-01,
          6.66605122e-03, 5.79859540e-02, 0. ]
      - [ 1.50233448e-01, 1.17607951e-01, 1.88876465e-01, 9.50726122e-02,
          1.22984886e-01, 1.38147548e-01, 1.89528272e-01, 8.94335583e-02,
          1.39390782e-01, 9.43916813e-02, 1.12539418e-01, 1.07023865e-01,
          1.18604325e-01, 1.07086360e-01, 1.47319108e-01, 2.32884780e-01,
          1.81845114e-01, 1.11595534e-01, 7.37470016e-02, 5.30367577e-03,
          1.08239710e-01, 9.21881199e-02, 0., 1.48756206e-01,
          1.47983730e-01, 8.94001126e-02, 7.11687505e-02, 7.59262070e-02,
          6.53123707e-02, 2.21996140e-02, 1.62051514e-01, 3.43477696e-01,
          0., 8.31398442e-02, 5.72922304e-02, 8.68928283e-02,
          1.72162250e-01, 1.21805109e-01, 2.33981803e-01, 2.08030760e-01,
          8.43571592e-03, 0., 3.95804197e-02, 5.30367577e-03,
          5.29367849e-02, 9.48595628e-02, 2.03609124e-01, 6.44022226e-02,
          7.30554434e-03, 5.08797839e-02, 0., 6.73473161e-03,
          7.02421889e-02, 7.84134865e-02, 9.54602733e-02, 2.07904324e-01,
          1.99756160e-01, 1.34013623e-01, 1.55614376e-01, 1.46194801e-01,
          1.14651263e-01, 4.19101082e-02, 0., 0. ]
      - [ 3.18082720e-01, 1.44899279e-01, 1.49711639e-01, 1.84913889e-01,
          7.09402114e-02, 1.30414784e-01, 6.74690083e-02, 8.83174762e-02,
          9.02776942e-02, 1.02072835e-01, 1.28532052e-01, 7.17981085e-02,
          9.41679329e-02, 1.01131611e-02, 7.63127133e-02, 1.48097679e-01,
          2.92153627e-01, 9.30705816e-02, 9.06148404e-02, 0.,
          1.55188749e-02, 0., 6.53009862e-02, 5.21327481e-02,
          1.95630208e-01, 1.59802377e-01, 1.55993119e-01, 1.30738050e-01,
          1.82247981e-01, 6.66286051e-03, 4.55142446e-02, 1.21880136e-01,
          9.96330008e-03, 5.36748841e-02, 0., 1.06488876e-02,
          3.40219475e-02, 1.75677508e-01, 1.27714008e-01, 6.67228997e-02,
          2.87885249e-01, 1.78705007e-01, 0., 7.92352110e-03,
          1.39082940e-02, 1.26553681e-02, 9.26501378e-02, 1.16692819e-01,
          2.45748967e-01, 1.94797307e-01, 9.38137621e-02, 1.04711205e-02,
          5.57571463e-02, 0., 8.41635987e-02, 1.07564539e-01,
          3.06116074e-01, 1.03175268e-01, 1.34318724e-01, 0.,
          8.91144667e-03, 0., 8.37810338e-03, 1.12055512e-02 ]
      - [ 2.03252912e-01, 1.83408722e-01, 1.43715009e-01, 9.69834179e-02,
          1.29778743e-01, 1.60393268e-01, 9.23492163e-02, 1.54344589e-01,
          1.59322336e-01, 1.37598738e-01, 1.00937247e-01, 1.37484461e-01,
          1.14988886e-01, 1.58736587e-01, 1.37095660e-01, 2.11322218e-01,
          2.85773009e-01, 8.62939134e-02, 3.67178731e-02, 7.40561709e-02,
          8.15591961e-03, 0., 1.19039379e-01, 1.76390529e-01,
          1.73610166e-01, 1.02578782e-01, 1.37578860e-01, 0.,
          6.85615912e-02, 1.08480796e-01, 1.31691322e-01, 2.70553082e-01,
          9.37626138e-02, 8.03262964e-02, 8.38331655e-02, 1.30181357e-01,
          9.13513526e-02, 9.31605920e-02, 1.36125833e-01, 2.32037663e-01,
          1.80120334e-01, 5.45303598e-02, 3.32552269e-02, 0., 0.,
          3.14308293e-02, 3.23841013e-02, 1.48393139e-01, 5.60416840e-02,
          8.39964766e-03, 0., 0., 1.23436805e-02, 0., 3.50112356e-02,
          2.11592466e-01, 1.92475438e-01, 8.78703222e-02, 1.39712647e-01,
          9.40514356e-02, 1.18840918e-01, 9.64362994e-02, 4.15885784e-02,
          7.25175207e-03 ]
      - [ 3.51887554e-01, 1.87038034e-01, 1.11655436e-01, 1.08334333e-01,
          1.95511162e-01, 1.43262103e-01, 1.16739862e-01, 5.17075621e-02,
          1.89603403e-01, 9.74771976e-02, 8.87592062e-02, 1.29031718e-01,
          1.28120147e-02, 1.12668596e-01, 1.11408025e-01, 1.71677530e-01,
          3.07614654e-01, 1.60049513e-01, 6.77352818e-03, 0.,
          1.73928812e-02, 6.19329587e-02, 1.10298786e-02, 1.15855180e-01,
          2.74382353e-01, 1.02751836e-01, 9.68086571e-02, 1.30861640e-01,
          1.96243316e-01, 5.64824268e-02, 1.87558550e-02, 1.46806151e-01,
          9.69525333e-03, 3.80903482e-03, 0., 5.69583569e-03,
          8.05512816e-03, 8.78925249e-02, 1.35717705e-01, 1.66273490e-01,
          2.67934650e-01, 2.16156971e-02, 0., 5.69583569e-03,
          1.02602653e-02, 0., 0., 0., 5.81974648e-02, 8.38446915e-02,
          1.11694045e-01, 8.31404403e-02, 8.28646496e-02, 6.77352818e-03,
          1.10094614e-01, 8.28591511e-02, 2.11276919e-01, 1.12892747e-01,
          1.51653409e-01, 6.86268732e-02, 1.06574232e-02, 0.,
          1.65733501e-01, 9.23710912e-02 ]
      - [ 2.52159655e-01, 1.77084401e-01, 2.04178914e-01, 7.02378526e-02,
          7.08957436e-03, 8.59062448e-02, 1.16741538e-01, 4.80326004e-02,
          5.93156368e-02, 9.85518098e-02, 1.08598791e-01, 6.87680393e-02,
          8.76889005e-02, 1.33558825e-01, 1.54767916e-01, 1.64672181e-01,
          3.03348452e-01, 1.01855680e-01, 1.40404373e-01, 1.10713519e-01,
          1.38295457e-01, 5.57947010e-02, 7.67678395e-02, 5.85196391e-02,
          1.09918423e-01, 6.10368252e-02, 5.33045530e-02, 8.24288204e-02,
          1.30529031e-01, 9.37400609e-02, 9.24490914e-02, 5.04578762e-02,
          9.12516043e-02, 9.30858105e-02, 7.78867677e-02, 1.04669124e-01,
          1.20990850e-01, 1.56003058e-01, 1.84935555e-01, 2.21365571e-01,
          2.19312862e-01, 1.53997049e-01, 1.36010706e-01, 8.39652270e-02,
          1.15772262e-02, 1.17191501e-01, 6.34099990e-02, 7.86320120e-02,
          8.43716487e-02, 5.58179170e-02, 5.09128831e-02, 1.71156257e-01,
          1.05232179e-01, 6.82734400e-02, 7.21003786e-02, 1.59945339e-01,
          2.92776048e-01, 1.05096646e-01, 1.25109078e-02, 9.92830470e-02,
          1.16840385e-01, 3.51730287e-02, 5.63385934e-02, 9.65910777e-02 ]
      - [ 2.86624193e-01, 1.79370314e-01, 6.72456399e-02, 1.17387548e-02,
          1.19265178e-02, 8.63685086e-03, 1.10350950e-02, 1.08100958e-01,
          1.88526750e-01, 6.63662627e-02, 6.56174645e-02, 0.,
          6.56266585e-02, 4.15047966e-02, 4.67285812e-02, 2.11250037e-01,
          3.08919936e-01, 5.66456951e-02, 0., 0., 1.04520693e-02, 0.,
          1.03452727e-01, 1.76937401e-01, 2.55357891e-01, 8.67964551e-02,
          6.97352923e-03, 1.05697410e-02, 1.68068502e-02, 6.10717572e-03,
          6.64328188e-02, 2.35444710e-01, 1.05160080e-01, 5.28393127e-02,
          0., 0., 5.55700324e-02, 4.86666299e-02, 1.97053492e-01,
          2.36724541e-01, 2.32497141e-01, 1.34714618e-02, 1.04046851e-01,
          8.88793543e-02, 6.60978630e-02, 0., 7.76439160e-02,
          1.58864647e-01, 2.09753767e-01, 0., 0., 0., 9.89304557e-02,
          1.00865446e-01, 4.19211835e-02, 2.45362803e-01, 2.60006458e-01,
          9.81143862e-02, 8.58003721e-02, 0., 0., 0., 1.48936704e-01,
          2.06407592e-01 ]
      - [ 2.95752138e-01, 2.37121448e-01, 3.34856696e-02, 4.40726131e-02,
          1.50385052e-02, 3.90534811e-02, 8.89366493e-03, 3.70520763e-02,
          6.10629283e-03, 8.89366493e-03, 4.07952629e-02, 4.94377650e-02,
          5.74980006e-02, 2.41465550e-02, 5.22233024e-02, 2.34924912e-01,
          2.90525258e-01, 7.89286494e-02, 4.71377820e-02, 5.42934751e-03,
          5.86099401e-02, 1.04949728e-01, 7.28969350e-02, 1.31819949e-01,
          1.16236530e-01, 5.13475994e-03, 9.72270072e-02, 1.80890605e-01,
          1.30124658e-01, 1.31932169e-01, 1.94957420e-01, 2.41778716e-01,
          0., 8.98444001e-03, 0., 5.42934751e-03, 1.29809543e-01,
          1.16051555e-01, 1.70062289e-01, 1.79630294e-01, 3.48126590e-01,
          1.30911209e-02, 3.13314535e-02, 3.41226459e-02, 3.44553590e-02,
          0., 5.13475994e-03, 0., 7.08172023e-02, 7.26164691e-03,
          9.20403600e-02, 0., 9.33443829e-02, 0., 1.03731537e-02,
          1.86853454e-01, 3.18549842e-01, 1.61662892e-01, 9.19307023e-02,
          1.09662257e-01, 1.72317907e-01, 4.96567897e-02, 3.79077084e-02,
          1.10308364e-01 ]
      - [ 2.58225441e-01, 2.15224981e-01, 1.58458456e-01, 6.37261271e-02,
          9.97070149e-02, 6.54143514e-03, 9.01049562e-03, 3.37189622e-02,
          4.38721403e-02, 2.22453605e-02, 0., 1.04548195e-02,
          1.43384347e-02, 0., 9.13153216e-03, 2.52805203e-01,
          2.92493612e-01, 1.24516852e-01, 8.53635650e-03, 7.49361143e-02,
          9.62488800e-02, 0., 7.18966499e-02, 1.24912530e-01,
          7.51224607e-02, 1.60237417e-01, 1.21265128e-01, 5.19422106e-02,
          1.09059773e-01, 1.55343592e-01, 1.47748351e-01, 2.17763871e-01,
          7.23963603e-02, 0., 4.87165675e-02, 0., 1.23222522e-01,
          1.50541335e-01, 1.99169531e-01, 2.13291392e-01, 2.70678520e-01,
          1.45713329e-01, 0., 6.37066215e-02, 7.02807214e-03, 0., 0., 0.,
          1.31851524e-01, 1.20998017e-01, 6.41600639e-02, 7.54505917e-02,
          7.77912140e-03, 0., 9.14351642e-02, 3.14711422e-01,
          1.92435905e-01, 1.16681263e-01, 1.40018448e-01, 7.11073726e-02,
          1.50287241e-01, 1.04448302e-02, 1.12181872e-01, 0. ]
      - [ 1.92529917e-01, 1.53261915e-01, 1.86407015e-01, 9.82202664e-02,
          1.04174487e-01, 0., 1.30143333e-02, 8.63764901e-03,
          1.37511984e-01, 1.14349179e-01, 1.10020384e-01, 4.51419950e-02,
          5.93904033e-02, 6.01551682e-02, 1.05511628e-01, 2.81870633e-01,
          3.21570992e-01, 1.06186077e-01, 1.07386239e-01, 8.21789354e-02,
          6.87070936e-02, 0., 1.07794128e-01, 1.29709914e-01,
          2.04788268e-01, 1.42368481e-01, 1.38777763e-01, 6.12246580e-02,
          9.04600695e-02, 7.39710331e-02, 1.41207695e-01, 1.55102938e-01,
          4.24997555e-03, 6.35519577e-03, 0., 0., 1.25392988e-01,
          8.99055228e-02, 2.14326829e-01, 1.85726836e-01, 2.33632922e-01,
          9.30378288e-02, 8.75154361e-02, 8.73816609e-02, 0.,
          9.37786922e-02, 8.14208612e-02, 6.87670484e-02, 1.70659065e-01,
          9.35350135e-02, 7.65328854e-02, 8.46707821e-02, 7.91254640e-02,
          8.06997623e-03, 1.18690185e-01, 1.76801637e-01, 2.45452031e-01,
          1.30334049e-01, 1.08907364e-01, 1.06458031e-01, 0.,
          1.19471505e-01, 8.98760371e-03, 1.03722014e-01 ]
      - [ 2.33549356e-01, 1.46974653e-01, 2.07605526e-01, 8.94613266e-02,
          5.49458116e-02, 1.09845757e-01, 5.12633435e-02, 0.,
          6.92008808e-02, 3.89478691e-02, 7.40999728e-02, 9.08247158e-02,
          5.69927245e-02, 9.81790498e-02, 4.77276742e-03, 2.08645314e-01,
          3.62452418e-01, 9.00720339e-03, 3.37418094e-02, 8.14938825e-03,
          5.10080419e-02, 7.63564110e-02, 9.93548632e-02, 4.27330621e-02,
          2.28248134e-01, 1.77280352e-01, 8.37775096e-02, 1.08224764e-01,
          1.58420857e-02, 6.85279118e-03, 7.99407661e-02, 1.52748644e-01,
          1.02263965e-01, 3.49371955e-02, 0., 0., 1.38867676e-01,
          1.82358980e-01, 1.84216365e-01, 1.68400094e-01, 2.07390070e-01,
          1.48428470e-01, 1.00795671e-01, 1.17331639e-01, 5.23485057e-02,
          7.13132471e-02, 7.53985643e-02, 2.71118414e-02, 2.18797341e-01,
          0., 1.12344168e-01, 9.65329483e-02, 6.55697733e-02,
          7.82925859e-02, 8.36367607e-02, 1.33323744e-01, 3.38181674e-01,
          8.57253894e-02, 0., 0., 6.88506290e-02, 5.75958714e-02,
          7.75579810e-02, 1.51515737e-01 ]
      - [ 2.29277134e-01, 1.82814017e-01, 7.25845248e-02, 6.80366009e-02,
          5.17341420e-02, 6.57779276e-02, 8.95242207e-03, 0.,
          1.54163800e-02, 4.72731031e-02, 0., 7.72898458e-03,
          1.85694285e-02, 4.77722660e-02, 1.62520334e-01, 2.71573663e-01,
          2.40298137e-01, 1.17490642e-01, 7.83572868e-02, 7.38370195e-02,
          1.31187961e-01, 7.93800876e-02, 9.56563801e-02, 1.21728353e-01,
          6.87214732e-02, 3.64592373e-02, 9.26183090e-02, 9.45123211e-02,
          1.21749431e-01, 4.93551455e-02, 1.14997715e-01, 2.19862089e-01,
          5.75215109e-02, 0., 7.79050887e-02, 8.58322904e-02, 0.,
          1.08438626e-01, 1.74498841e-01, 1.97419643e-01, 3.21847141e-01,
          1.25453234e-01, 8.75904113e-02, 5.45389578e-02, 4.44718264e-02,
          1.04324661e-01, 5.58293313e-02, 0., 6.26836270e-02,
          9.33274552e-02, 0., 4.57909368e-02, 2.51238525e-01,
          1.09653734e-01, 1.58936054e-01, 1.33261114e-01, 2.62245953e-01,
          7.10699260e-02, 8.18891376e-02, 1.80748746e-01, 1.74575403e-01,
          1.15916125e-01, 1.27184629e-01, 9.29289386e-02 ]
      - [ 2.96460956e-01, 1.35303259e-01, 2.05909953e-01, 7.68224671e-02,
          4.79752198e-02, 1.49609223e-01, 6.66193664e-02, 1.01372682e-01,
          1.19561218e-01, 8.22592825e-02, 6.38432428e-02, 0.,
          5.90981208e-02, 8.43710825e-02, 4.81921472e-02, 2.29073927e-01,
          3.15228105e-01, 1.43040136e-01, 0., 8.30047876e-02,
          1.15920700e-01, 4.79579419e-02, 6.24678470e-03, 5.32337427e-02,
          1.12748146e-01, 8.19438975e-03, 1.18166506e-01, 2.02542439e-01,
          1.47178382e-01, 0., 5.75110652e-02, 2.47520864e-01,
          7.37017766e-02, 0., 5.66242114e-02, 1.17049694e-01,
          9.75648686e-02, 1.71163812e-01, 1.42764926e-01, 1.96142837e-01,
          2.81532198e-01, 4.62668911e-02, 0., 0., 7.22836703e-02,
          5.76298945e-02, 0., 6.09878190e-02, 5.30516803e-02, 0.,
          5.87843470e-02, 0., 8.57794844e-03, 0., 1.14454441e-01,
          1.07686311e-01, 3.63068968e-01, 1.27037689e-01, 7.50131533e-02,
          0., 4.35378402e-02, 1.10270262e-01, 0., 6.22271746e-02 ]
      - [ 2.29927734e-01, 1.64777085e-01, 2.32066780e-01, 9.10957344e-03,
          3.70599031e-02, 6.23656735e-02, 1.06702186e-02, 5.64119127e-03,
          6.42469972e-02, 1.00961057e-02, 6.70854514e-03, 0.,
          1.69795584e-02, 2.67538019e-02, 1.15466937e-01, 2.85643607e-01,
          3.67300302e-01, 1.55196026e-01, 1.29167274e-01, 0.,
          7.77045498e-03, 6.70854514e-03, 2.37466991e-02, 6.37052432e-02,
          1.17357053e-01, 3.03327646e-02, 8.31386298e-02, 6.55618384e-02,
          9.59798321e-02, 1.51391417e-01, 1.34153083e-01, 9.73166302e-02,
          0., 0., 8.75442941e-03, 1.28828827e-02, 1.57898352e-01,
          1.40003622e-01, 2.35778272e-01, 2.45543927e-01, 2.64164567e-01,
          6.35740235e-02, 0., 9.77083016e-03, 9.55432560e-03, 0.,
          1.06702186e-02, 0., 9.99528617e-02, 0., 0., 0., 4.48627444e-03,
          8.59529525e-02, 1.38081446e-01, 2.13810697e-01, 3.26659560e-01,
          1.27814963e-01, 1.31898746e-01, 1.46893665e-01, 1.18695665e-02,
          9.21580866e-02, 7.24502727e-02, 4.07042168e-02 ]
      - [ 1.99804410e-01, 2.02588260e-01, 1.69707119e-01, 1.12799227e-01,
          1.80048510e-01, 7.55104572e-02, 9.68058705e-02, 1.03732899e-01,
          1.15554728e-01, 8.69262815e-02, 9.08917263e-02, 7.37087876e-02,
          6.70925975e-02, 8.25628266e-02, 2.26948671e-02, 2.10731432e-01,
          2.82987684e-01, 1.36907831e-01, 1.40502587e-01, 4.18301150e-02,
          1.24225445e-01, 8.35903883e-02, 1.19121343e-01, 1.18341409e-01,
          8.92477557e-02, 6.32042959e-02, 7.82269612e-02, 6.82237968e-02,
          1.38550267e-01, 1.41674131e-01, 1.24264389e-01, 1.35028467e-01,
          6.98222965e-02, 1.04591668e-01, 3.79692577e-02, 1.53041035e-01,
          1.36967957e-01, 1.36727497e-01, 1.28416330e-01, 1.55461997e-01,
          2.40046844e-01, 1.07205354e-01, 5.54224774e-02, 7.55826309e-02,
          5.10801263e-02, 0., 6.71841428e-02, 7.71750137e-02,
          8.36400911e-02, 1.08816236e-01, 9.73154679e-02, 1.17828004e-01,
          8.34389590e-03, 1.52519211e-01, 1.19373925e-01, 1.59089714e-01,
          2.72045761e-01, 1.10421754e-01, 1.53551921e-01, 1.00788750e-01,
          6.44348338e-02, 5.68396114e-02, 1.09884910e-01, 8.69611874e-02 ]
      - [ 2.09661931e-01, 2.45992452e-01, 7.87880048e-02, 6.82934970e-02,
          8.41052532e-02, 8.87752175e-02, 0., 5.96295632e-02,
          7.64873698e-02, 5.85567988e-02, 3.51754464e-02, 1.07805934e-02,
          9.57489535e-02, 4.45503555e-02, 1.65216222e-01, 2.46277004e-01,
          2.51222253e-01, 1.43379390e-01, 9.16145071e-02, 8.90978128e-02,
          9.23122540e-02, 3.52582149e-02, 5.90149611e-02, 2.04912409e-01,
          1.39304444e-01, 4.20878530e-02, 0., 5.30921621e-03,
          2.43146252e-02, 9.14028510e-02, 1.95822865e-01, 2.58311003e-01,
          8.44452903e-03, 7.10097374e-03, 6.31375797e-03, 0.,
          1.79074675e-01, 1.46518379e-01, 1.85956866e-01, 3.20680231e-01,
          1.48865879e-01, 3.55048687e-03, 0., 0., 0., 0., 0., 0.,
          9.71922353e-02, 0., 7.20941694e-03, 0., 9.93402302e-03,
          9.02870968e-02, 1.83651686e-01, 3.02435279e-01, 2.01023415e-01,
          1.64149821e-01, 1.07373990e-01, 9.82802510e-02, 8.91147032e-02,
          7.53805861e-02, 6.83436915e-02, 5.37050106e-02 ]
      - [ 2.84424782e-01, 1.57842755e-01, 1.35567725e-01, 0.,
          4.20241691e-02, 0., 6.00201115e-02, 6.66286051e-02,
          8.27294141e-02, 8.72444212e-02, 2.48517748e-02, 8.47381502e-02,
          9.74126998e-03, 3.70392762e-02, 8.14351737e-02, 1.89057842e-01,
          3.00651163e-01, 8.24454799e-02, 0., 5.00063272e-03,
          5.62412478e-03, 0., 8.29654559e-02, 2.18542770e-01,
          2.06509352e-01, 1.32404968e-01, 0., 6.76562935e-02,
          1.32866772e-02, 7.90498033e-02, 1.38168827e-01, 1.29865795e-01,
          1.29547760e-01, 7.37824738e-02, 3.58189568e-02, 0.,
          1.15946144e-01, 1.25438765e-01, 1.53534964e-01, 1.91845745e-01,
          2.87497193e-01, 1.21375673e-01, 8.36454630e-02, 6.64843470e-02,
          6.70175180e-02, 6.37045801e-02, 3.75430249e-02, 1.16179310e-01,
          2.56574631e-01, 1.54997021e-01, 8.52608010e-02, 1.04394630e-01,
          1.86627395e-02, 8.13770294e-02, 7.12620392e-02, 1.14084020e-01,
          3.19993198e-01, 6.89756870e-02, 1.21667102e-01, 5.53206131e-02,
          1.16331950e-01, 8.54837522e-02, 7.63147548e-02, 1.03866637e-01 ]
      - [ 3.06791246e-01, 1.82150885e-01, 8.88357908e-02, 5.01563139e-02,
          1.33714424e-02, 6.15608552e-03, 6.15608552e-03, 1.38679698e-01,
          1.68997467e-01, 1.13952041e-01, 8.46859589e-02, 6.43297583e-02,
          1.11277007e-01, 1.36708751e-01, 1.57307774e-01, 1.88468188e-01,
